{"learner":{"attributes":{"scikit_learn":"{\"_estimator_type\": \"classifier\"}"},"feature_names":[],"feature_types":[],"gradient_booster":{"model":{"cats":{"enc":[],"feature_segments":[],"sorted_idx":[]},"gbtree_model_param":{"num_parallel_tree":"1","num_trees":"200"},"iteration_indptr":[0,1,2,3,4,5,6,7,8,9,10,11,12,13,14,15,16,17,18,19,20,21,22,23,24,25,26,27,28,29,30,31,32,33,34,35,36,37,38,39,40,41,42,43,44,45,46,47,48,49,50,51,52,53,54,55,56,57,58,59,60,61,62,63,64,65,66,67,68,69,70,71,72,73,74,75,76,77,78,79,80,81,82,83,84,85,86,87,88,89,90,91,92,93,94,95,96,97,98,99,100,101,102,103,104,105,106,107,108,109,110,111,112,113,114,115,116,117,118,119,120,121,122,123,124,125,126,127,128,129,130,131,132,133,134,135,136,137,138,139,140,141,142,143,144,145,146,147,148,149,150,151,152,153,154,155,156,157,158,159,160,161,162,163,164,165,166,167,168,169,170,171,172,173,174,175,176,177,178,179,180,181,182,183,184,185,186,187,188,189,190,191,192,193,194,195,196,197,198,199,200],"tree_info":[0,0,0,0,0,0,0,0,0,0,0,0,0,0,0,0,0,0,0,0,0,0,0,0,0,0,0,0,0,0,0,0,0,0,0,0,0,0,0,0,0,0,0,0,0,0,0,0,0,0,0,0,0,0,0,0,0,0,0,0,0,0,0,0,0,0,0,0,0,0,0,0,0,0,0,0,0,0,0,0,0,0,0,0,0,0,0,0,0,0,0,0,0,0,0,0,0,0,0,0,0,0,0,0,0,0,0,0,0,0,0,0,0,0,0,0,0,0,0,0,0,0,0,0,0,0,0,0,0,0,0,0,0,0,0,0,0,0,0,0,0,0,0,0,0,0,0,0,0,0,0,0,0,0,0,0,0,0,0,0,0,0,0,0,0,0,0,0,0,0,0,0,0,0,0,0,0,0,0,0,0,0,0,0,0,0,0,0,0,0,0,0,0,0,0,0,0,0,0,0],"trees":[{"base_weights":[-7.2135925E-3,-4.271412E-1,7.792576E-1,-7.593928E-1,1.586665E-1,5.066215E-1,1.2687186E0,-9.5349026E-1,-3.6910212E-1,-1.5646112E-1,6.7754275E-1,2.6723427E-1,9.768008E-1,1.3519111E0,7.146764E-1,-1.316636E0,-7.724066E-1,-5.702323E-1,-2.7878992E-2,-5.585017E-1,-5.4765992E-2,-2.078055E-2,7.784143E-1,3.7420362E-1,-3.1467143E-1,5.49202E-1,1.1422076E0,1.5051894E0,1.0419759E0,1.1482055E0,1.3693663E-2,-1.4363261E0,-5.417401E-1,1.699305E-2,-9.744264E-1,-1.3921987E0,-3.9801508E-1,1.9616087E-1,-6.866398E-1,-1.0635194E0,3.1128487E-1,-3.811362E-1,1.7978336E-1,-3.4389034E-1,8.451215E-2,5.440857E-1,1.143558E0,2.1998496E-1,7.749641E-1,-1.1038692E0,2.2710955E-1,6.611019E-1,-3.409834E-2,1.1894667E0,2.6158968E-3,1.5334563E-1,5.0841976E-2,5.9624773E-1,1.3066286E0,4.9241894E-1,1.3482738E-1,-7.845916E-1,9.7834386E-2,-1.552185E-1,-9.0610854E-2,-1.491494E-1,3.138266E-2,2.4282362E-2,-6.4809196E-2,-1.007882E-1,1.6751057E-2,-4.386872E-2,-1.6677377E-1,-8.182055E-2,-1.0077571E-2,9.7468875E-2,1.8725436E-3,-1.370485E-1,4.0890906E-2,-1.5934696E-3,-1.2433769E-1,9.0152346E-2,-4.0081166E-2,-7.5607575E-2,1.3693929E-2,3.3196058E-2,-5.1436443E-2,-5.8657218E-2,5.3501595E-2,7.744002E-2,-1.3364121E-2,-1.6498378E-2,1.2729818E-1,-6.060805E-3,6.061722E-2,1.38599975E-2,1.0007484E-1,8.68351E-3,-1.3369046E-1,7.96078E-2,-6.828185E-2,1.6276224E-2,9.9291E-2,1.4180645E-1,7.949332E-2,1.21422544E-1,-2.0101334E-3,-1.483355E-2,1.4417581E-1,-3.6134575E-2,1.06256716E-1,-1.0752682E-1,-1.483355E-2],"categories":[],"categories_nodes":[],"categories_segments":[],"categories_sizes":[],"default_left":[0,0,0,0,0,0,0,0,0,0,0,0,0,0,0,0,0,0,0,0,0,0,0,0,0,0,0,0,0,0,0,0,0,0,0,0,0,0,0,0,0,0,0,0,0,0,0,0,0,0,0,0,0,0,0,0,0,0,0,0,0,0,0,0,0,0,0,0,0,0,0,0,0,0,0,0,0,0,0,0,0,0,0,0,0,0,0,0,0,0,0,0,0,0,0,0,0,0,0,0,0,0,0,0,0,0,0,0,0,0,0,0,0],"id":0,"left_children":[1,3,5,7,9,11,13,15,17,19,21,23,25,27,29,31,33,35,37,39,41,43,45,47,49,51,53,55,57,59,61,63,65,67,69,71,73,75,77,79,81,83,85,87,-1,89,91,93,95,97,99,101,-1,103,-1,-1,-1,105,107,109,-1,111,-1,-1,-1,-1,-1,-1,-1,-1,-1,-1,-1,-1,-1,-1,-1,-1,-1,-1,-1,-1,-1,-1,-1,-1,-1,-1,-1,-1,-1,-1,-1,-1,-1,-1,-1,-1,-1,-1,-1,-1,-1,-1,-1,-1,-1,-1,-1,-1,-1,-1,-1],"loss_changes":[2.5911792E2,9.967134E1,3.580162E1,2.4384949E1,3.0508257E1,1.9668793E1,3.5064545E0,1.3282623E1,7.5394745E0,4.732194E0,4.9781837E0,7.5067806E0,3.5711632E0,2.386383E0,4.4788766E0,5.800873E0,2.3541878E1,9.243143E0,6.3152986E0,1.0613466E1,7.2704854E0,3.050657E0,4.6465683E0,6.055148E0,8.36437E0,2.0666103E0,2.1776314E0,7.2637177E-1,2.8537292E0,5.334625E-1,5.8991E0,2.3308868E0,9.484586E0,4.819819E0,4.6568832E0,2.313074E0,7.2392826E0,4.4059505E0,8.689022E0,2.81324E0,4.3006444E0,7.807566E0,6.0250525E0,1.9977772E0,0E0,6.2557545E0,4.132715E0,8.0702E0,3.826151E0,2.3067532E0,6.7982492E0,2.609693E0,0E0,2.494152E0,0E0,0E0,0E0,5.0949755E0,3.8479004E0,2.1892626E0,0E0,6.174946E-1,0E0,0E0,0E0,0E0,0E0,0E0,0E0,0E0,0E0,0E0,0E0,0E0,0E0,0E0,0E0,0E0,0E0,0E0,0E0,0E0,0E0,0E0,0E0,0E0,0E0,0E0,0E0,0E0,0E0,0E0,0E0,0E0,0E0,0E0,0E0,0E0,0E0,0E0,0E0,0E0,0E0,0E0,0E0,0E0,0E0,0E0,0E0,0E0,0E0,0E0,0E0],"parents":[2147483647,0,0,1,1,2,2,3,3,4,4,5,5,6,6,7,7,8,8,9,9,10,10,11,11,12,12,13,13,14,14,15,15,16,16,17,17,18,18,19,19,20,20,21,21,22,22,23,23,24,24,25,25,26,26,27,27,28,28,29,29,30,30,31,31,32,32,33,33,34,34,35,35,36,36,37,37,38,38,39,39,40,40,41,41,42,42,43,43,45,45,46,46,47,47,48,48,49,49,50,50,51,51,53,53,57,57,58,58,59,59,61,61],"right_children":[2,4,6,8,10,12,14,16,18,20,22,24,26,28,30,32,34,36,38,40,42,44,46,48,50,52,54,56,58,60,62,64,66,68,70,72,74,76,78,80,82,84,86,88,-1,90,92,94,96,98,100,102,-1,104,-1,-1,-1,106,108,110,-1,112,-1,-1,-1,-1,-1,-1,-1,-1,-1,-1,-1,-1,-1,-1,-1,-1,-1,-1,-1,-1,-1,-1,-1,-1,-1,-1,-1,-1,-1,-1,-1,-1,-1,-1,-1,-1,-1,-1,-1,-1,-1,-1,-1,-1,-1,-1,-1,-1,-1,-1,-1],"split_conditions":[1.0891052E0,4.7654903E-1,4.7654903E-1,6.2085056E-1,5.0665015E-1,5.4471695E-1,1.5983739E0,-6.1802405E-1,7.116364E-1,-7.1484596E-1,-1.0940351E0,1.2687428E0,-6.1802405E-1,4.6090278E-1,4.1797912E-1,1.4248776E0,-1.8361165E-1,-1.1527756E0,8.473181E-1,4.7020108E-1,-7.4955446E-1,1.8246939E0,4.749062E-1,4.885559E-1,-8.2568806E-1,1.5579034E0,1.6988422E0,1.6988422E0,-3.6888638E-1,-1.0087641E0,7.323296E-2,9.678145E-1,-2.2864917E-1,8.034447E-1,1.6710421E0,-6.191519E-1,-4.452269E-1,8.111846E-1,4.749062E-1,-1.3205565E0,1.0599663E-1,4.3480563E-1,1.1904141E0,1.6105875E0,8.451215E-2,-5.5148654E-2,-1.4538476E0,7.116364E-1,-7.6282823E-1,-1.5108906E0,1.1781677E-2,1.0776522E0,-3.409834E-2,3.431732E-1,2.6158968E-3,1.5334563E-1,5.0841976E-2,2.3193413E-1,5.45409E-1,-7.9666847E-1,1.3482738E-1,-1.2012611E-1,9.7834386E-2,-1.552185E-1,-9.0610854E-2,-1.491494E-1,3.138266E-2,2.4282362E-2,-6.4809196E-2,-1.007882E-1,1.6751057E-2,-4.386872E-2,-1.6677377E-1,-8.182055E-2,-1.0077571E-2,9.7468875E-2,1.8725436E-3,-1.370485E-1,4.0890906E-2,-1.5934696E-3,-1.2433769E-1,9.0152346E-2,-4.0081166E-2,-7.5607575E-2,1.3693929E-2,3.3196058E-2,-5.1436443E-2,-5.8657218E-2,5.3501595E-2,7.744002E-2,-1.3364121E-2,-1.6498378E-2,1.2729818E-1,-6.060805E-3,6.061722E-2,1.38599975E-2,1.0007484E-1,8.68351E-3,-1.3369046E-1,7.96078E-2,-6.828185E-2,1.6276224E-2,9.9291E-2,1.4180645E-1,7.949332E-2,1.21422544E-1,-2.0101334E-3,-1.483355E-2,1.4417581E-1,-3.6134575E-2,1.06256716E-1,-1.0752682E-1,-1.483355E-2],"split_indices":[12,16,16,10,10,10,16,2,13,13,15,7,2,0,1,13,2,1,0,0,10,11,1,7,10,15,2,2,10,1,11,8,1,0,8,4,0,10,1,10,2,0,1,10,0,1,0,13,2,10,10,10,0,0,0,0,0,15,0,0,0,0,0,0,0,0,0,0,0,0,0,0,0,0,0,0,0,0,0,0,0,0,0,0,0,0,0,0,0,0,0,0,0,0,0,0,0,0,0,0,0,0,0,0,0,0,0,0,0,0,0,0,0],"split_type":[0,0,0,0,0,0,0,0,0,0,0,0,0,0,0,0,0,0,0,0,0,0,0,0,0,0,0,0,0,0,0,0,0,0,0,0,0,0,0,0,0,0,0,0,0,0,0,0,0,0,0,0,0,0,0,0,0,0,0,0,0,0,0,0,0,0,0,0,0,0,0,0,0,0,0,0,0,0,0,0,0,0,0,0,0,0,0,0,0,0,0,0,0,0,0,0,0,0,0,0,0,0,0,0,0,0,0,0,0,0,0,0,0],"sum_hessian":[7.825775E2,5.1047302E2,2.7210452E2,3.2554044E2,1.8493257E2,1.7606763E2,9.603689E1,2.1645238E2,1.0908806E2,1.1549052E2,6.944206E1,1.1770676E2,5.836088E1,8.224698E1,1.3789912E1,6.9934555E1,1.4651782E2,6.8210815E1,4.087724E1,2.2408607E1,9.308191E1,8.8649435E0,6.0577114E1,9.973062E1,1.7976135E1,1.7483639E1,4.087724E1,5.2450916E1,2.979606E1,8.126199E0,5.663714E0,5.983837E1,1.0096186E1,3.0042309E1,1.1647551E2,1.0588683E1,5.7622135E1,3.1027304E1,9.849937E0,1.4036161E1,8.372447E0,3.8661003E1,5.4420906E1,6.894956E0,1.9699875E0,3.8414757E1,2.216236E1,7.313579E1,2.6594831E1,6.894956E0,1.108118E1,1.57599E1,1.723739E0,3.9153503E1,1.723739E0,5.048093E1,1.9699875E0,1.2312422E1,1.7483639E1,2.7087328E0,5.4174657E0,3.2012298E0,2.4624844E0,4.7525948E1,1.2312422E1,4.4324718E0,5.663714E0,2.2901104E1,7.141205E0,1.13274284E2,3.2012298E0,2.9549813E0,7.633702E0,2.3147354E1,3.447478E1,4.9249687E0,2.6102335E1,5.9099627E0,3.939975E0,2.2162359E0,1.1819925E1,4.4324718E0,3.939975E0,2.216236E1,1.6498646E1,4.5063465E1,9.357441E0,5.663714E0,1.2312422E0,2.856482E1,9.849937E0,1.9699875E0,2.0192371E1,4.284723E1,3.0288557E1,7.387453E0,1.9207378E1,1.2312422E0,5.663714E0,6.894956E0,4.1862235E0,6.894956E0,8.8649435E0,2.3147354E1,1.600615E1,5.663714E0,6.648708E0,1.4774907E0,1.600615E1,1.2312422E0,1.4774907E0,1.723739E0,1.4774907E0],"tree_param":{"num_deleted":"0","num_feature":"20","num_nodes":"113","size_leaf_vector":"1"}},{"base_weights":[-2.8951012E-2,-3.997873E-1,7.028764E-1,1.16082355E-1,-6.95833E-1,5.321499E-1,1.2598568E0,-1.0340658E-1,7.237406E-1,-8.955705E-1,-8.2062475E-2,9.4940716E-1,3.1416708E-1,1.565916E-1,1.0569389E0,-3.8855374E-1,4.201448E-1,-4.2259926E-1,7.9154253E-1,-1.0517827E0,-5.0639963E-1,1.1945676E-1,-6.523197E-1,1.5606195E-1,1.0844884E0,1.3013043E-1,6.5826213E-1,1.26704E0,7.195507E-1,-1.1805613E0,-3.021794E-1,-1.0890167E-1,4.963979E-1,1.1524008E-2,-7.712835E-2,4.8760438E-1,1.0521401E0,-1.144382E0,-6.180157E-1,-6.1192073E-2,-8.3027726E-1,-1.7291541E-1,5.617887E-1,-9.1385746E-1,1.8705826E-1,-3.1829792E-1,7.8454995E-1,8.6758256E-1,1.4165189E0,3.0302918E-1,-3.361068E-1,7.722123E-1,-1.17173895E-1,1.3552158E0,3.6903682E-1,-1.6658099E-1,1.0050765E0,-1.4078176E-1,1.0221748E-2,-5.9964575E-2,-6.883312E-3,7.236981E-2,1.015276E-2,-1.6218847E-2,7.441032E-2,1.1397606E-1,-3.5280146E-2,-1.158693E-1,2.5322184E-3,-1.0447178E-1,-3.0389665E-2,-3.41706E-2,5.1464047E-2,-1.0452044E-1,-4.5181274E-2,-6.7608945E-2,1.4563213E-2,1.08108476E-1,1.4369503E-2,-4.4245124E-2,-1.4695834E-1,8.7193094E-2,-7.879268E-2,3.3604886E-2,-1.2082332E-1,-3.4204181E-3,1.20115064E-1,1.14133194E-1,3.869537E-2,1.4502512E-1,4.592887E-2,5.167687E-2,-9.99272E-3,-7.0573516E-2,9.5332436E-2,1.2239157E-2,8.614264E-2,-1.11495495E-1,4.3082453E-2,1.4264713E-1,3.5367604E-2,5.998858E-3,5.1198434E-2,-7.502043E-2,9.4214395E-2,1.2624536E-1,5.2121468E-2],"categories":[],"categories_nodes":[],"categories_segments":[],"categories_sizes":[],"default_left":[0,0,0,0,0,0,0,0,0,0,0,0,0,0,0,0,0,0,0,0,0,0,0,0,0,0,0,0,0,0,0,0,0,0,0,0,0,0,0,0,0,0,0,0,0,0,0,0,0,0,0,0,0,0,0,0,0,0,0,0,0,0,0,0,0,0,0,0,0,0,0,0,0,0,0,0,0,0,0,0,0,0,0,0,0,0,0,0,0,0,0,0,0,0,0,0,0,0,0,0,0,0,0,0,0,0,0],"id":1,"left_children":[1,3,5,7,9,11,13,15,17,19,21,23,25,-1,27,29,31,33,35,37,39,41,43,45,47,49,51,53,55,57,59,-1,61,-1,-1,63,65,67,69,71,73,75,77,79,81,83,85,87,89,91,93,95,97,99,101,103,105,-1,-1,-1,-1,-1,-1,-1,-1,-1,-1,-1,-1,-1,-1,-1,-1,-1,-1,-1,-1,-1,-1,-1,-1,-1,-1,-1,-1,-1,-1,-1,-1,-1,-1,-1,-1,-1,-1,-1,-1,-1,-1,-1,-1,-1,-1,-1,-1,-1,-1],"loss_changes":[2.1216142E2,7.931234E1,2.4331818E1,2.5419271E1,4.0354538E1,1.8163288E1,2.1304703E0,2.113473E1,4.2634125E0,1.458696E1,9.509128E0,7.241955E0,8.45187E0,0E0,1.9045677E0,5.9001913E0,6.2958984E0,7.405316E-1,3.2947483E0,6.3838043E0,1.0498962E1,8.048749E0,4.9092407E0,3.5977082E0,3.014885E0,7.2831583E0,4.219902E0,1.3344498E0,4.6105194E0,2.6655169E0,5.7764444E0,0E0,4.261075E0,0E0,0E0,4.1300626E0,3.4819832E0,2.4450073E0,4.13671E0,5.327109E0,2.9664059E0,6.154357E0,5.2080545E0,3.70541E0,4.6651797E0,4.547003E0,1.7871022E0,4.587393E0,3.470993E-2,5.69401E0,1.2384711E1,2.264368E0,4.229006E0,9.744072E-1,1.21513575E-1,4.031006E0,1.0136766E0,0E0,0E0,0E0,0E0,0E0,0E0,0E0,0E0,0E0,0E0,0E0,0E0,0E0,0E0,0E0,0E0,0E0,0E0,0E0,0E0,0E0,0E0,0E0,0E0,0E0,0E0,0E0,0E0,0E0,0E0,0E0,0E0,0E0,0E0,0E0,0E0,0E0,0E0,0E0,0E0,0E0,0E0,0E0,0E0,0E0,0E0,0E0,0E0,0E0,0E0],"parents":[2147483647,0,0,1,1,2,2,3,3,4,4,5,5,6,6,7,7,8,8,9,9,10,10,11,11,12,12,14,14,15,15,16,16,17,17,18,18,19,19,20,20,21,21,22,22,23,23,24,24,25,25,26,26,27,27,28,28,29,29,30,30,32,32,35,35,36,36,37,37,38,38,39,39,40,40,41,41,42,42,43,43,44,44,45,45,46,46,47,47,48,48,49,49,50,50,51,51,52,52,53,53,54,54,55,55,56,56],"right_children":[2,4,6,8,10,12,14,16,18,20,22,24,26,-1,28,30,32,34,36,38,40,42,44,46,48,50,52,54,56,58,60,-1,62,-1,-1,64,66,68,70,72,74,76,78,80,82,84,86,88,90,92,94,96,98,100,102,104,106,-1,-1,-1,-1,-1,-1,-1,-1,-1,-1,-1,-1,-1,-1,-1,-1,-1,-1,-1,-1,-1,-1,-1,-1,-1,-1,-1,-1,-1,-1,-1,-1,-1,-1,-1,-1,-1,-1,-1,-1,-1,-1,-1,-1,-1,-1,-1,-1,-1,-1],"split_conditions":[1.0891052E0,-4.334019E-1,1.7495468E0,1.7495468E0,1.7495468E0,-4.334019E-1,-4.7654903E-1,5.4471695E-1,-1.6494428E0,7.35051E-1,8.034447E-1,-1.5552268E0,5.4471695E-1,1.565916E-1,5.280896E-1,-1.5983739E0,-1.5776713E0,-1.2100499E0,3.6780782E-2,1.4248776E0,-6.1802405E-1,3.9244974E-1,9.083868E-1,7.323296E-2,4.3051654E-1,8.588637E-1,1.5579034E0,1.3269182E0,-6.5204537E-1,1.2748575E0,-2.4509989E-1,-1.0890167E-1,4.1315612E-1,1.1524008E-2,-7.712835E-2,-3.0185083E-1,1.5771637E0,1.6809467E0,-2.2864917E-1,7.116364E-1,6.739239E-1,-5.51965E-1,-2.7026224E-1,-1.5140688E-1,4.1598707E-1,4.1797912E-1,1.3895269E-1,4.6090278E-1,1.2980537E0,5.280896E-1,1.5422821E0,-1.2512282E0,2.138047E-1,1.5417671E0,9.4730556E-1,9.748215E-1,-3.2551512E-2,-1.4078176E-1,1.0221748E-2,-5.9964575E-2,-6.883312E-3,7.236981E-2,1.015276E-2,-1.6218847E-2,7.441032E-2,1.1397606E-1,-3.5280146E-2,-1.158693E-1,2.5322184E-3,-1.0447178E-1,-3.0389665E-2,-3.41706E-2,5.1464047E-2,-1.0452044E-1,-4.5181274E-2,-6.7608945E-2,1.4563213E-2,1.08108476E-1,1.4369503E-2,-4.4245124E-2,-1.4695834E-1,8.7193094E-2,-7.879268E-2,3.3604886E-2,-1.2082332E-1,-3.4204181E-3,1.20115064E-1,1.14133194E-1,3.869537E-2,1.4502512E-1,4.592887E-2,5.167687E-2,-9.99272E-3,-7.0573516E-2,9.5332436E-2,1.2239157E-2,8.614264E-2,-1.11495495E-1,4.3082453E-2,1.4264713E-1,3.5367604E-2,5.998858E-3,5.1198434E-2,-7.502043E-2,9.4214395E-2,1.2624536E-1,5.2121468E-2],"split_indices":[12,9,6,6,6,9,9,17,0,17,0,9,17,0,4,9,8,9,8,13,2,17,8,11,17,8,15,0,15,8,1,0,8,0,0,14,1,8,1,13,15,1,8,8,12,1,0,0,1,4,8,0,9,1,9,2,8,0,0,0,0,0,0,0,0,0,0,0,0,0,0,0,0,0,0,0,0,0,0,0,0,0,0,0,0,0,0,0,0,0,0,0,0,0,0,0,0,0,0,0,0,0,0,0,0,0,0],"split_type":[0,0,0,0,0,0,0,0,0,0,0,0,0,0,0,0,0,0,0,0,0,0,0,0,0,0,0,0,0,0,0,0,0,0,0,0,0,0,0,0,0,0,0,0,0,0,0,0,0,0,0,0,0,0,0,0,0,0,0,0,0,0,0,0,0,0,0,0,0,0,0,0,0,0,0,0,0,0,0,0,0,0,0,0,0,0,0,0,0,0,0,0,0,0,0,0,0,0,0,0,0,0,0,0,0,0,0],"sum_hessian":[7.7972833E2,5.177994E2,2.6192896E2,1.8902495E2,3.2877444E2,2.0197478E2,5.9954166E1,1.3947556E2,4.9549385E1,2.4770534E2,8.106912E1,6.8156296E1,1.3381848E2,2.1224493E1,3.8729675E1,9.04634E1,4.9012157E1,2.4747918E0,4.7074593E1,1.75541E2,7.216433E1,6.04852E1,2.0583921E1,1.0229978E1,5.792632E1,8.808504E1,4.573344E1,2.2168985E1,1.656069E1,7.6498947E0,8.281351E1,1.7185202E0,4.729364E1,1.2367016E0,1.2380903E0,2.3055634E1,2.4018959E1,1.4330948E2,3.2231525E1,3.089057E1,4.1273758E1,3.678209E1,2.3703112E1,1.5626274E1,4.9576464E0,6.1110954E0,4.1188827E0,3.7222748E1,2.0703573E1,6.451167E1,2.3573362E1,3.9877594E1,5.8558464E0,1.97232E1,2.445785E0,4.1372585E0,1.2423431E1,6.4158006E0,1.2340941E0,3.5714905E1,4.70986E1,2.948714E1,1.78065E1,6.6292706E0,1.6426363E1,2.27866E1,1.2323589E0,1.4158662E2,1.7228525E0,1.2680441E1,1.9551086E1,2.1045128E1,9.845442E0,2.5200747E1,1.607301E1,1.3823784E1,2.2958303E1,9.864765E0,1.3838346E1,9.426346E0,6.1999283E0,2.9741619E0,1.9834849E0,3.8803568E0,2.2307384E0,1.6985614E0,2.4203212E0,2.2839504E1,1.4383243E1,1.950131E1,1.2022628E0,4.1968136E1,2.2543537E1,1.8673185E1,4.9001775E0,5.1002293E0,3.4777367E1,1.7091945E0,4.146652E0,1.8017078E1,1.7061212E0,1.2224784E0,1.2233065E0,2.9223313E0,1.2149272E0,7.0593085E0,5.3641233E0],"tree_param":{"num_deleted":"0","num_feature":"20","num_nodes":"107","size_leaf_vector":"1"}},{"base_weights":[-3.585263E-2,-3.5708264E-1,5.9179276E-1,-5.472523E-1,2.1242754E-1,1.0174994E0,3.4814683E-1,-7.51088E-1,-1.517285E-1,7.606273E-1,-5.264403E-2,8.553422E-1,1.4803584E-1,1.8272746E-1,8.797349E-1,-4.2393854E-1,-9.368559E-1,3.5187456E-1,-3.6602497E-1,9.192528E-1,4.188308E-2,-2.8415328E-1,3.3721483E-1,6.0976356E-1,1.2299361E0,-5.3779692E-3,5.535307E-1,6.4043355E-1,1.250498E0,-2.0349579E-1,-6.266486E-1,-1.0465325E0,-4.5712715E-1,1.0821126E0,2.1662663E-1,-6.1767304E-1,2.3910813E-2,2.334124E-1,1.0771767E0,3.0092615E-1,-8.5955195E-2,-6.5672314E-1,2.8641043E-2,8.6470646E-1,-1.5559965E-1,1.8579313E-1,8.933055E-1,3.7735075E-2,1.2768865E0,-1.7500906E-1,5.902091E-1,1.2339902E-1,8.600133E-1,1.1477515E0,1.5854475E-1,5.979505E-1,1.4623933E-1,-2.5657928E-2,9.7681604E-2,-1.3213381E-1,-4.4401605E-2,-6.378236E-2,-1.0993951E-1,2.8434535E-2,-7.2368406E-2,1.3372509E-1,3.291012E-3,9.5552084E-4,7.823237E-2,-7.727497E-2,-1.7364407E-2,4.2200275E-2,-2.6354356E-2,-4.524311E-2,8.696798E-2,-1.7121984E-2,1.17750004E-1,-3.6649063E-2,7.430833E-2,-1.8378986E-2,-1.00491405E-1,1.06092766E-1,-1.0510207E-2,2.692957E-2,1.3429607E-1,-4.951037E-2,7.36668E-2,5.3370524E-2,-4.9809366E-2,2.453685E-2,1.0591873E-1,1.4455466E-1,9.1377355E-2,-5.6948304E-2,-4.185772E-3,-4.4878136E-2,7.9859965E-2,-6.854247E-2,3.66855E-2,9.754503E-2,-9.394276E-3,1.722367E-2,1.2566794E-1,-5.6883674E-2,5.4300398E-2,1.10319294E-1,-8.656403E-3],"categories":[],"categories_nodes":[],"categories_segments":[],"categories_sizes":[],"default_left":[0,0,0,0,0,0,0,0,0,0,0,0,0,0,0,0,0,0,0,0,0,0,0,0,0,0,0,0,0,0,0,0,0,0,0,0,0,0,0,0,0,0,0,0,0,0,0,0,0,0,0,0,0,0,0,0,0,0,0,0,0,0,0,0,0,0,0,0,0,0,0,0,0,0,0,0,0,0,0,0,0,0,0,0,0,0,0,0,0,0,0,0,0,0,0,0,0,0,0,0,0,0,0,0,0,0,0],"id":2,"left_children":[1,3,5,7,9,11,13,15,17,19,21,23,-1,25,27,29,31,33,35,37,39,41,43,45,47,49,51,53,55,57,59,61,63,65,67,69,71,73,75,77,-1,79,81,83,85,87,89,-1,91,93,95,97,99,101,103,105,-1,-1,-1,-1,-1,-1,-1,-1,-1,-1,-1,-1,-1,-1,-1,-1,-1,-1,-1,-1,-1,-1,-1,-1,-1,-1,-1,-1,-1,-1,-1,-1,-1,-1,-1,-1,-1,-1,-1,-1,-1,-1,-1,-1,-1,-1,-1,-1,-1,-1,-1],"loss_changes":[1.5837169E2,5.6381042E1,2.7229866E1,3.1307732E1,1.9042324E1,5.960457E0,1.4846182E1,1.5218155E1,1.4568545E1,4.828232E0,8.136015E0,6.027294E0,0E0,9.169491E0,2.7694054E0,4.112522E0,8.1008E0,3.760539E0,9.273038E0,3.530901E0,2.3054533E0,6.5955744E0,8.88141E0,5.4218197E0,6.465759E-1,9.012069E0,5.7259283E0,6.297845E0,1.1629448E0,3.1913733E0,5.6237183E0,2.1493835E0,6.553542E0,1.5810742E0,4.1368217E0,3.8169613E0,4.45621E0,3.802768E0,3.7220192E0,2.5001826E0,0E0,4.063504E0,4.479289E0,4.3096466E0,5.8910666E0,4.998501E0,2.7056694E0,0E0,2.897148E-1,3.6215584E0,4.6402197E0,4.105903E0,2.9179707E0,1.1385689E0,4.4347296E0,1.929698E0,0E0,0E0,0E0,0E0,0E0,0E0,0E0,0E0,0E0,0E0,0E0,0E0,0E0,0E0,0E0,0E0,0E0,0E0,0E0,0E0,0E0,0E0,0E0,0E0,0E0,0E0,0E0,0E0,0E0,0E0,0E0,0E0,0E0,0E0,0E0,0E0,0E0,0E0,0E0,0E0,0E0,0E0,0E0,0E0,0E0,0E0,0E0,0E0,0E0,0E0,0E0],"parents":[2147483647,0,0,1,1,2,2,3,3,4,4,5,5,6,6,7,7,8,8,9,9,10,10,11,11,13,13,14,14,15,15,16,16,17,17,18,18,19,19,20,20,21,21,22,22,23,23,24,24,25,25,26,26,27,27,28,28,29,29,30,30,31,31,32,32,33,33,34,34,35,35,36,36,37,37,38,38,39,39,41,41,42,42,43,43,44,44,45,45,46,46,48,48,49,49,50,50,51,51,52,52,53,53,54,54,55,55],"right_children":[2,4,6,8,10,12,14,16,18,20,22,24,-1,26,28,30,32,34,36,38,40,42,44,46,48,50,52,54,56,58,60,62,64,66,68,70,72,74,76,78,-1,80,82,84,86,88,90,-1,92,94,96,98,100,102,104,106,-1,-1,-1,-1,-1,-1,-1,-1,-1,-1,-1,-1,-1,-1,-1,-1,-1,-1,-1,-1,-1,-1,-1,-1,-1,-1,-1,-1,-1,-1,-1,-1,-1,-1,-1,-1,-1,-1,-1,-1,-1,-1,-1,-1,-1,-1,-1,-1,-1,-1,-1],"split_conditions":[1.0891052E0,1.7495468E0,-4.334019E-1,6.2085056E-1,-6.0599035E-1,1.7495468E0,1.7495468E0,-4.334019E-1,-6.0599035E-1,1.3885207E0,3.9244974E-1,4.3051654E-1,1.4803584E-1,5.0665015E-1,5.8278376E-1,-4.5531146E-2,1.4248776E0,-1.228241E0,7.116364E-1,-7.1484596E-1,5.6094766E-1,-9.599089E-2,5.1583445E-1,-1.253197E0,-1.5703338E0,1.4248776E0,-3.880751E-2,4.4824228E-1,-6.5204537E-1,1.5958012E0,-7.1484596E-1,-1.0940351E0,-6.5204537E-1,-8.64873E-1,-8.64873E-1,1.5995996E0,-4.5531146E-2,7.323296E-2,-1.5108906E0,-2.1005563E-1,-8.5955195E-2,-1.0369488E0,7.54711E-2,9.634518E-1,1.1159136E0,5.280896E-1,-7.1484596E-1,3.7735075E-2,7.116364E-1,-3.0185083E-1,-9.2617416E-1,-1.7451927E-1,1.6988422E0,-1.2741531E0,-1.21054694E-1,2.4127923E-1,1.4623933E-1,-2.5657928E-2,9.7681604E-2,-1.3213381E-1,-4.4401605E-2,-6.378236E-2,-1.0993951E-1,2.8434535E-2,-7.2368406E-2,1.3372509E-1,3.291012E-3,9.5552084E-4,7.823237E-2,-7.727497E-2,-1.7364407E-2,4.2200275E-2,-2.6354356E-2,-4.524311E-2,8.696798E-2,-1.7121984E-2,1.17750004E-1,-3.6649063E-2,7.430833E-2,-1.8378986E-2,-1.00491405E-1,1.06092766E-1,-1.0510207E-2,2.692957E-2,1.3429607E-1,-4.951037E-2,7.36668E-2,5.3370524E-2,-4.9809366E-2,2.453685E-2,1.0591873E-1,1.4455466E-1,9.1377355E-2,-5.6948304E-2,-4.185772E-3,-4.4878136E-2,7.9859965E-2,-6.854247E-2,3.66855E-2,9.754503E-2,-9.394276E-3,1.722367E-2,1.2566794E-1,-5.6883674E-2,5.4300398E-2,1.10319294E-1,-8.656403E-3],"split_indices":[12,6,9,17,9,6,6,9,9,4,17,17,0,17,17,4,13,1,13,13,1,1,9,9,1,13,2,19,15,0,13,15,15,9,9,5,4,11,17,15,0,1,1,17,15,4,13,0,13,14,1,9,2,1,1,4,0,0,0,0,0,0,0,0,0,0,0,0,0,0,0,0,0,0,0,0,0,0,0,0,0,0,0,0,0,0,0,0,0,0,0,0,0,0,0,0,0,0,0,0,0,0,0,0,0,0,0],"split_type":[0,0,0,0,0,0,0,0,0,0,0,0,0,0,0,0,0,0,0,0,0,0,0,0,0,0,0,0,0,0,0,0,0,0,0,0,0,0,0,0,0,0,0,0,0,0,0,0,0,0,0,0,0,0,0,0,0,0,0,0,0,0,0,0,0,0,0,0,0,0,0,0,0,0,0,0,0,0,0,0,0,0,0,0,0,0,0,0,0,0,0,0,0,0,0,0,0,0,0,0,0,0,0,0,0,0,0],"sum_hessian":[7.8345355E2,5.185102E2,2.6494336E2,3.8874152E2,1.2976866E2,9.528388E1,1.6965947E2,2.5594145E2,1.3280008E2,4.1686485E1,8.808217E1,7.2672035E1,2.2611847E1,1.3041937E2,3.924011E1,9.388531E1,1.6205615E2,3.9449825E1,9.335026E1,3.3921177E1,7.7653084E0,5.5434643E1,3.2647526E1,4.5482277E1,2.7189756E1,8.717945E1,4.3239918E1,2.5505474E1,1.3734634E1,4.593542E1,4.7949883E1,1.3093907E2,3.1117071E1,5.070726E0,3.4379097E1,5.6380573E1,3.696968E1,6.8126836E0,2.7108494E1,6.549395E0,1.2159132E0,2.4798075E1,3.0636568E1,1.5404476E1,1.724305E1,1.889079E1,2.6591486E1,1.8908285E0,2.529893E1,6.840341E1,1.877604E1,1.8574396E1,2.4665524E1,1.17517805E1,1.3753694E1,4.303522E0,9.431112E0,4.4707363E1,1.2280574E0,8.68382E0,3.9266064E1,1.649247E1,1.1444661E2,8.210754E0,2.2906317E1,3.8580177E0,1.212708E0,2.5911263E1,8.467835E0,4.123795E1,1.5142622E1,1.5305382E1,2.1664299E1,3.4176595E0,3.395024E0,1.9638768E0,2.5144617E1,2.6780803E0,3.871315E0,1.1163287E1,1.3634788E1,2.7188375E0,2.791773E1,7.558043E0,7.8464336E0,1.2812909E1,4.43014E0,1.2666561E1,6.2242293E0,5.9255133E0,2.0665974E1,1.5239459E1,1.0059469E1,1.6435287E1,5.1968124E1,2.9440534E0,1.5831985E1,3.877371E0,1.4697024E1,2.1982874E1,2.6826494E0,1.439692E0,1.0312089E1,4.590007E0,9.163687E0,2.1240852E0,2.179437E0],"tree_param":{"num_deleted":"0","num_feature":"20","num_nodes":"107","size_leaf_vector":"1"}},{"base_weights":[4.009188E-3,-2.9557896E-1,5.989949E-1,-4.8736146E-1,2.9818374E-1,4.596302E-1,1.0725738E0,-6.417947E-1,-1.7637934E-1,1.1281462E-1,5.706172E-1,3.3410472E-1,7.011425E-1,1.2598754E0,7.662117E-1,-8.23666E-1,-5.248952E-1,-6.356594E-1,-6.2181737E-2,-2.469937E-1,2.4033882E-1,1.0146357E0,3.0951265E-1,3.6208978E-1,-6.459265E-1,7.9080003E-1,7.0871215E-4,7.039508E-1,1.335995E-1,-7.851751E-3,9.750994E-1,-1.018213E0,-4.837469E-1,-3.4335127E-1,-6.9714123E-1,-9.4413245E-1,-1.444911E-1,6.1474633E-1,-1.4891663E-1,-5.3371793E-1,6.047394E-1,4.8061088E-1,3.5680833E-4,1.192106E0,1.668836E-1,6.547503E-1,-5.4706156E-1,6.4625405E-2,4.5477355E-1,-1.3214183E-1,8.533611E-3,5.5929947E-1,1.0459054E0,5.9815234E-1,-7.470062E-1,-8.226215E-3,8.95074E-1,5.9251595E-1,-8.920001E-2,-1.0055029E-2,1.0472455E0,-5.1758643E-2,-1.121848E-1,-1.8257216E-2,-1.06586196E-1,-8.0882914E-2,-1.4612123E-2,-8.2209535E-2,-2.0115534E-2,-1.3151598E-1,-3.137903E-2,6.270111E-2,-8.318818E-2,2.174414E-2,1.0823846E-1,8.608217E-2,-2.018453E-2,8.094574E-2,-7.532267E-2,-5.1497232E-2,1.1248225E-1,7.2869234E-2,-4.9551148E-2,-1.5415176E-2,1.0571611E-1,1.2704408E-1,3.5919663E-2,9.30895E-2,-4.178211E-2,-4.411908E-2,8.336761E-2,1.4404123E-2,-8.755967E-2,-1.7282626E-2,6.293009E-2,6.2903315E-3,5.734873E-2,7.820797E-2,1.5851673E-2,7.35456E-2,1.4420725E-1,-2.7759358E-2,1.14453755E-1,4.4935397E-3,-1.0640842E-1,4.105351E-2,1.0863326E-1,-7.80588E-3,1.0413325E-1,1.397801E-1,5.5288564E-2],"categories":[],"categories_nodes":[],"categories_segments":[],"categories_sizes":[],"default_left":[0,0,0,0,0,0,0,0,0,0,0,0,0,0,0,0,0,0,0,0,0,0,0,0,0,0,0,0,0,0,0,0,0,0,0,0,0,0,0,0,0,0,0,0,0,0,0,0,0,0,0,0,0,0,0,0,0,0,0,0,0,0,0,0,0,0,0,0,0,0,0,0,0,0,0,0,0,0,0,0,0,0,0,0,0,0,0,0,0,0,0,0,0,0,0,0,0,0,0,0,0,0,0,0,0,0,0,0,0,0,0],"id":3,"left_children":[1,3,5,7,9,11,13,15,17,19,21,23,25,27,29,31,33,35,37,39,41,43,45,47,49,51,53,55,-1,57,59,61,63,65,67,69,71,73,75,77,79,81,83,85,87,89,91,93,95,-1,-1,97,99,101,103,-1,105,107,-1,-1,109,-1,-1,-1,-1,-1,-1,-1,-1,-1,-1,-1,-1,-1,-1,-1,-1,-1,-1,-1,-1,-1,-1,-1,-1,-1,-1,-1,-1,-1,-1,-1,-1,-1,-1,-1,-1,-1,-1,-1,-1,-1,-1,-1,-1,-1,-1,-1,-1,-1,-1],"loss_changes":[1.3923322E2,5.9305763E1,1.6771805E1,1.8764412E1,6.372341E0,5.945961E0,2.4045563E0,5.14357E0,6.873576E0,3.5968204E0,5.6406937E0,3.9652538E0,4.320587E0,5.360985E-1,4.023095E0,6.1772537E0,4.839077E0,3.823886E0,6.3544016E0,5.369972E0,3.3111787E0,2.5964966E0,1.0348303E1,3.6350803E0,2.1559534E0,3.017498E0,4.382036E0,1.0227115E0,0E0,3.8564456E0,1.6235733E0,2.7004166E0,6.5758314E0,7.321699E0,4.939316E0,3.2999573E0,6.495165E0,2.051806E0,5.2700925E0,5.3251667E0,3.8834286E0,7.3100076E0,5.017771E0,5.354843E-1,2.3451965E0,5.178526E0,2.4532213E0,4.498762E0,4.6705666E0,0E0,0E0,2.9232721E0,2.3672714E0,2.9264526E0,1.1419425E0,0E0,3.2686234E-2,1.3859202E0,0E0,0E0,2.419756E0,0E0,0E0,0E0,0E0,0E0,0E0,0E0,0E0,0E0,0E0,0E0,0E0,0E0,0E0,0E0,0E0,0E0,0E0,0E0,0E0,0E0,0E0,0E0,0E0,0E0,0E0,0E0,0E0,0E0,0E0,0E0,0E0,0E0,0E0,0E0,0E0,0E0,0E0,0E0,0E0,0E0,0E0,0E0,0E0,0E0,0E0,0E0,0E0,0E0,0E0],"parents":[2147483647,0,0,1,1,2,2,3,3,4,4,5,5,6,6,7,7,8,8,9,9,10,10,11,11,12,12,13,13,14,14,15,15,16,16,17,17,18,18,19,19,20,20,21,21,22,22,23,23,24,24,25,25,26,26,27,27,29,29,30,30,31,31,32,32,33,33,34,34,35,35,36,36,37,37,38,38,39,39,40,40,41,41,42,42,43,43,44,44,45,45,46,46,47,47,48,48,51,51,52,52,53,53,54,54,56,56,57,57,60,60],"right_children":[2,4,6,8,10,12,14,16,18,20,22,24,26,28,30,32,34,36,38,40,42,44,46,48,50,52,54,56,-1,58,60,62,64,66,68,70,72,74,76,78,80,82,84,86,88,90,92,94,96,-1,-1,98,100,102,104,-1,106,108,-1,-1,110,-1,-1,-1,-1,-1,-1,-1,-1,-1,-1,-1,-1,-1,-1,-1,-1,-1,-1,-1,-1,-1,-1,-1,-1,-1,-1,-1,-1,-1,-1,-1,-1,-1,-1,-1,-1,-1,-1,-1,-1,-1,-1,-1,-1,-1,-1,-1,-1,-1,-1],"split_conditions":[1.0891052E0,1.7495468E0,1.7495468E0,6.2085056E-1,3.9244974E-1,5.0665015E-1,5.280896E-1,-3.9905542E-1,-8.744437E-1,-6.5204537E-1,-6.6762376E-1,1.6722788E0,1.5579034E0,-1.1927726E0,-6.5204537E-1,5.110982E-1,-2.5713116E-1,5.6094766E-1,-1.1927726E0,8.774815E-1,4.4824228E-1,1.3885207E0,1.0106182E0,-3.0185083E-1,1.691295E0,5.1332796E-1,7.323296E-2,-1.3305848E0,1.335995E-1,4.461171E-1,-1.5850166E0,-1.5024449E0,1.0106182E0,-1.0540888E0,1.2598209E-1,3.086401E-1,-1.2607236E0,1.8622692E-1,6.5891737E-1,-1.3767055E0,-8.6375487E-1,1.5579034E0,1.5104277E0,1.2708032E0,-9.302494E-1,-3.778042E-1,-5.178776E-1,1.3424911E0,-9.3999964E-1,-1.3214183E-1,8.533611E-3,6.853041E-1,3.956049E-1,-3.9017147E-1,-4.5531146E-2,-8.226215E-3,-3.0185083E-1,-4.4600666E-1,-8.920001E-2,-1.0055029E-2,-2.6035762E-1,-5.1758643E-2,-1.121848E-1,-1.8257216E-2,-1.06586196E-1,-8.0882914E-2,-1.4612123E-2,-8.2209535E-2,-2.0115534E-2,-1.3151598E-1,-3.137903E-2,6.270111E-2,-8.318818E-2,2.174414E-2,1.0823846E-1,8.608217E-2,-2.018453E-2,8.094574E-2,-7.532267E-2,-5.1497232E-2,1.1248225E-1,7.2869234E-2,-4.9551148E-2,-1.5415176E-2,1.0571611E-1,1.2704408E-1,3.5919663E-2,9.30895E-2,-4.178211E-2,-4.411908E-2,8.336761E-2,1.4404123E-2,-8.755967E-2,-1.7282626E-2,6.293009E-2,6.2903315E-3,5.734873E-2,7.820797E-2,1.5851673E-2,7.35456E-2,1.4420725E-1,-2.7759358E-2,1.14453755E-1,4.4935397E-3,-1.0640842E-1,4.105351E-2,1.0863326E-1,-7.80588E-3,1.0413325E-1,1.397801E-1,5.5288564E-2],"split_indices":[12,6,6,10,10,10,4,1,8,15,0,0,15,4,15,11,12,1,4,1,19,4,3,14,0,3,11,1,0,0,1,1,3,10,10,0,8,0,10,1,10,15,0,1,12,0,8,19,1,0,0,0,2,0,4,0,14,19,0,0,8,0,0,0,0,0,0,0,0,0,0,0,0,0,0,0,0,0,0,0,0,0,0,0,0,0,0,0,0,0,0,0,0,0,0,0,0,0,0,0,0,0,0,0,0,0,0,0,0,0,0],"split_type":[0,0,0,0,0,0,0,0,0,0,0,0,0,0,0,0,0,0,0,0,0,0,0,0,0,0,0,0,0,0,0,0,0,0,0,0,0,0,0,0,0,0,0,0,0,0,0,0,0,0,0,0,0,0,0,0,0,0,0,0,0,0,0,0,0,0,0,0,0,0,0,0,0,0,0,0,0,0,0,0,0,0,0,0,0,0,0,0,0,0,0,0,0,0,0,0,0,0,0,0,0,0,0,0,0,0,0,0,0,0,0],"sum_hessian":[7.791158E2,5.185286E2,2.6058713E2,3.9207083E2,1.2645782E2,2.0286005E2,5.772709E1,2.6126385E2,1.3080698E2,7.609523E1,5.036259E1,1.3505098E2,6.780906E1,3.389327E1,2.383382E1,9.985865E1,1.614052E2,2.5138523E1,1.0566846E2,1.9667295E1,5.6427933E1,1.7580437E1,3.2782154E1,1.3191464E2,3.1363292E0,5.9999886E1,7.8091755E0,5.3161073E0,2.857716E1,5.269466E0,1.8564354E1,6.224074E1,3.7617912E1,8.003902E1,8.136619E1,1.487452E1,1.0264004E1,1.1310135E1,9.435832E1,1.4993361E1,4.6739345E0,2.769588E1,2.873205E1,1.4201308E1,3.379129E0,2.3532944E1,9.249209E0,3.1740906E1,1.00173744E2,1.2108188E0,1.9255105E0,3.3128857E1,2.687103E1,4.4519653E0,3.35721E0,1.1509778E0,4.1651297E0,3.3348389E0,1.9346268E0,1.1421392E0,1.7422215E1,1.1702778E1,5.0537964E1,2.5657084E1,1.1960828E1,2.2897717E1,5.71413E1,6.446737E1,1.6898815E1,8.679333E0,6.1951876E0,4.8775067E0,5.3864965E0,6.9069643E0,4.4031706E0,3.9394913E0,9.041883E1,1.7285805E0,1.3264781E1,1.4855181E0,3.1884162E0,2.2285503E1,5.4103775E0,2.581233E1,2.9197206E0,1.250035E1,1.7009588E0,1.208262E0,2.170867E0,3.0970953E0,2.0435848E1,3.161106E0,6.088103E0,2.2833239E1,8.907667E0,2.3646685E1,7.652706E1,2.0681437E1,1.2447419E1,1.666681E1,1.0204223E1,1.899459E0,2.5525062E0,1.205245E0,2.151965E0,2.0692744E0,2.0958552E0,1.6683072E0,1.6665318E0,9.124467E0,8.297748E0],"tree_param":{"num_deleted":"0","num_feature":"20","num_nodes":"111","size_leaf_vector":"1"}},{"base_weights":[-8.796358E-3,3.7470657E-1,-2.2374885E-1,2.285396E-1,8.356153E-1,-3.631686E-1,1.9945402E-1,4.338662E-2,5.658098E-1,-2.2667424E-1,9.072274E-1,-4.847932E-1,1.117343E-1,-1.2328074E-1,4.1536695E-1,2.638465E-1,-1.6979054E-1,7.3253834E-1,2.5836927E-1,-8.571278E-1,8.663538E-2,6.836838E-1,1.2026284E0,-8.233887E-1,-3.701153E-1,4.9115565E-1,-2.006075E-1,-8.0788404E-1,2.3353508E-1,2.0162763E-1,7.932784E-1,1.1696863E-1,8.0424166E-1,4.169176E-1,-2.9672983E-1,7.8956866E-1,-1.9636317E-1,6.7255604E-1,-3.5480626E-2,-1.6733212E-2,-1.232877E-1,9.053141E-1,1.8204008E-1,5.265155E-1,1.3088444E0,4.6471428E-2,-8.694879E-1,-3.1205416E-1,-9.2915183E-1,6.3394696E-1,-2.1449737E-1,-6.05548E-1,2.9312223E-1,-3.822277E-1,-1.3370409E0,-2.3331584E-1,5.135492E-1,3.4427938E-1,-3.4231105E-1,1.1569248E0,3.5611838E-1,-7.27546E-2,1.8789442E-2,-5.7404496E-2,1.00225486E-1,1.02153316E-1,-2.0186608E-3,-5.8194906E-2,-4.6024253E-3,7.705383E-3,8.52355E-2,4.944127E-2,-8.50619E-2,9.0292394E-2,-4.4105962E-2,-1.2477291E-1,3.747136E-2,-3.7652727E-3,1.0604669E-1,-8.5883774E-2,5.6085147E-2,9.3160175E-2,-4.522298E-2,1.3411403E-1,3.9376408E-2,-5.2131563E-2,-1.0886357E-1,-5.0626855E-2,-2.9726953E-3,4.302543E-2,-1.1343869E-1,3.632825E-2,9.867263E-2,-8.665318E-2,5.3975303E-2,6.146832E-2,-8.051164E-2,-5.679347E-2,5.9022415E-2,2.7343808E-2,-1.00062706E-1,-1.612763E-1,-1.2900907E-2,8.411998E-2,-4.9105484E-2,1.3827802E-1,1.7108882E-2,1.1213931E-1,2.243384E-2,1.3790065E-2,-9.262582E-2,1.4128916E-1,6.0456026E-2,-6.3275136E-2,7.135278E-2],"categories":[],"categories_nodes":[],"categories_segments":[],"categories_sizes":[],"default_left":[0,0,0,0,0,0,0,0,0,0,0,0,0,0,0,0,0,0,0,0,0,0,0,0,0,0,0,0,0,0,0,0,0,0,0,0,0,0,0,0,0,0,0,0,0,0,0,0,0,0,0,0,0,0,0,0,0,0,0,0,0,0,0,0,0,0,0,0,0,0,0,0,0,0,0,0,0,0,0,0,0,0,0,0,0,0,0,0,0,0,0,0,0,0,0,0,0,0,0,0,0,0,0,0,0,0,0,0,0,0,0,0,0,0,0],"id":4,"left_children":[1,3,5,7,9,11,13,15,17,19,21,23,25,27,29,31,33,35,37,39,-1,41,43,45,47,49,51,53,55,57,59,61,63,65,67,69,71,73,75,-1,-1,77,79,81,83,-1,85,87,89,91,93,95,97,99,101,103,105,107,109,111,113,-1,-1,-1,-1,-1,-1,-1,-1,-1,-1,-1,-1,-1,-1,-1,-1,-1,-1,-1,-1,-1,-1,-1,-1,-1,-1,-1,-1,-1,-1,-1,-1,-1,-1,-1,-1,-1,-1,-1,-1,-1,-1,-1,-1,-1,-1,-1,-1,-1,-1,-1,-1,-1,-1],"loss_changes":[6.3945892E1,1.8580128E1,2.940087E1,1.327151E1,5.28043E0,2.1670662E1,8.679352E0,6.55581E0,3.6745434E0,4.197169E0,3.3179398E0,1.1271484E1,9.237618E0,1.2501149E1,5.8510437E0,5.342812E0,5.4146814E0,2.715271E0,3.4377296E0,7.4804306E-1,0E0,4.0607224E0,1.155777E0,4.8344536E0,6.997595E0,3.6736612E0,8.776055E0,3.4292336E0,4.552687E0,3.910163E0,3.8075848E0,3.4328785E0,4.524128E0,3.4701016E0,4.1913543E0,1.9802036E0,2.045908E0,3.3975263E0,9.099059E0,0E0,0E0,3.8597088E0,5.567254E0,2.4674807E0,1.0816574E-1,0E0,4.955204E0,1.12201E1,6.240692E0,2.453906E0,3.7411423E0,6.328289E0,5.465207E0,4.7723746E0,2.2562132E0,4.1244335E0,6.166107E0,3.4038534E0,3.1158357E0,1.1316223E0,5.2220635E0,0E0,0E0,0E0,0E0,0E0,0E0,0E0,0E0,0E0,0E0,0E0,0E0,0E0,0E0,0E0,0E0,0E0,0E0,0E0,0E0,0E0,0E0,0E0,0E0,0E0,0E0,0E0,0E0,0E0,0E0,0E0,0E0,0E0,0E0,0E0,0E0,0E0,0E0,0E0,0E0,0E0,0E0,0E0,0E0,0E0,0E0,0E0,0E0,0E0,0E0,0E0,0E0,0E0,0E0],"parents":[2147483647,0,0,1,1,2,2,3,3,4,4,5,5,6,6,7,7,8,8,9,9,10,10,11,11,12,12,13,13,14,14,15,15,16,16,17,17,18,18,19,19,21,21,22,22,23,23,24,24,25,25,26,26,27,27,28,28,29,29,30,30,31,31,32,32,33,33,34,34,35,35,36,36,37,37,38,38,41,41,42,42,43,43,44,44,46,46,47,47,48,48,49,49,50,50,51,51,52,52,53,53,54,54,55,55,56,56,57,57,58,58,59,59,60,60],"right_children":[2,4,6,8,10,12,14,16,18,20,22,24,26,28,30,32,34,36,38,40,-1,42,44,46,48,50,52,54,56,58,60,62,64,66,68,70,72,74,76,-1,-1,78,80,82,84,-1,86,88,90,92,94,96,98,100,102,104,106,108,110,112,114,-1,-1,-1,-1,-1,-1,-1,-1,-1,-1,-1,-1,-1,-1,-1,-1,-1,-1,-1,-1,-1,-1,-1,-1,-1,-1,-1,-1,-1,-1,-1,-1,-1,-1,-1,-1,-1,-1,-1,-1,-1,-1,-1,-1,-1,-1,-1,-1,-1,-1,-1,-1,-1,-1],"split_conditions":[-4.334019E-1,1.7495468E0,1.7495468E0,5.4471695E-1,-1.5601112E0,1.4248776E0,-2.5468597E-1,4.4824228E-1,4.3296534E-1,2.7824932E-1,4.1315612E-1,-9.018217E-1,7.323296E-2,-5.51965E-1,6.739239E-1,1.4248776E0,-1.1418682E0,1.6988422E0,-7.6282823E-1,-1.0374614E0,8.663538E-2,-3.1978533E-1,-1.1682893E0,-1.6538316E0,1.4132218E0,1.3885207E0,2.2849362E-1,7.7471715E-1,-5.519718E-1,9.832121E-1,8.1786424E-1,-1.5983739E0,-1.1814867E0,1.6037613E-2,9.128406E-1,-1.5983739E0,-1.6047927E-3,1.8246939E0,1.0599663E-1,-1.6733212E-2,-1.232877E-1,-1.2740885E0,-3.0185083E-1,-1.253197E0,1.6611375E0,4.6471428E-2,-3.3234152E-1,1.4180619E-1,-1.3696744E0,1.4075862E-1,8.492514E-1,-1.1576979E0,-9.007197E-1,-9.018217E-1,1.3885207E0,-9.7854304E-1,-3.0185083E-1,-1.2310098E0,7.3157E-1,2.2735113E-1,-6.191519E-1,-7.27546E-2,1.8789442E-2,-5.7404496E-2,1.00225486E-1,1.02153316E-1,-2.0186608E-3,-5.8194906E-2,-4.6024253E-3,7.705383E-3,8.52355E-2,4.944127E-2,-8.50619E-2,9.0292394E-2,-4.4105962E-2,-1.2477291E-1,3.747136E-2,-3.7652727E-3,1.0604669E-1,-8.5883774E-2,5.6085147E-2,9.3160175E-2,-4.522298E-2,1.3411403E-1,3.9376408E-2,-5.2131563E-2,-1.0886357E-1,-5.0626855E-2,-2.9726953E-3,4.302543E-2,-1.1343869E-1,3.632825E-2,9.867263E-2,-8.665318E-2,5.3975303E-2,6.146832E-2,-8.051164E-2,-5.679347E-2,5.9022415E-2,2.7343808E-2,-1.00062706E-1,-1.612763E-1,-1.2900907E-2,8.411998E-2,-4.9105484E-2,1.3827802E-1,1.7108882E-2,1.1213931E-1,2.243384E-2,1.3790065E-2,-9.262582E-2,1.4128916E-1,6.0456026E-2,-6.3275136E-2,7.135278E-2],"split_indices":[9,6,6,10,0,13,10,19,8,10,8,10,18,1,15,13,8,2,2,9,0,8,10,1,7,4,7,9,0,0,9,9,8,3,14,9,13,18,2,0,0,7,14,9,8,0,4,7,8,1,10,0,1,10,4,3,14,8,9,0,4,0,0,0,0,0,0,0,0,0,0,0,0,0,0,0,0,0,0,0,0,0,0,0,0,0,0,0,0,0,0,0,0,0,0,0,0,0,0,0,0,0,0,0,0,0,0,0,0,0,0,0,0,0,0],"split_type":[0,0,0,0,0,0,0,0,0,0,0,0,0,0,0,0,0,0,0,0,0,0,0,0,0,0,0,0,0,0,0,0,0,0,0,0,0,0,0,0,0,0,0,0,0,0,0,0,0,0,0,0,0,0,0,0,0,0,0,0,0,0,0,0,0,0,0,0,0,0,0,0,0,0,0,0,0,0,0,0,0,0,0,0,0,0,0,0,0,0,0,0,0,0,0,0,0,0,0,0,0,0,0,0,0,0,0,0,0,0,0,0,0,0,0],"sum_hessian":[7.736967E2,2.776285E2,4.960682E2,2.1191895E2,6.570955E1,3.7324756E2,1.22820625E2,1.3754099E2,7.437796E1,4.0131702E0,6.169638E1,2.971304E2,7.611716E1,4.940371E1,7.3416916E1,6.749868E1,7.0042305E1,4.732848E1,2.704948E1,2.6820176E0,1.3311527E0,3.7006367E1,2.4690012E1,7.361027E1,2.2352014E2,3.410959E1,4.2007572E1,1.64938E1,3.290991E1,4.7873905E1,2.5543015E1,5.402995E1,1.3468733E1,1.205237E1,5.7989933E1,4.4732124E1,2.5963535E0,1.0691227E1,1.6358253E1,1.4554499E0,1.2265676E0,2.5108522E1,1.1897845E1,4.160921E0,2.052909E1,2.2296152E0,7.138065E1,2.0390129E2,1.9618853E1,2.8453535E1,5.656054E0,2.2954546E1,1.9053024E1,1.0095369E1,6.398429E0,1.2401086E1,2.0508823E1,3.821802E1,9.655883E0,1.3045123E1,1.2497891E1,3.4688187E0,5.056113E1,1.4533747E0,1.2015359E1,4.496135E0,7.556235E0,2.6509607E1,3.1480328E1,3.8029156E0,4.092921E1,1.3817686E0,1.214585E0,9.015445E0,1.6757824E0,3.6195586E0,1.2738695E1,3.6545718E0,2.145395E1,2.8365455E0,9.0613E0,2.9769704E0,1.1839507E0,1.9379532E1,1.1495581E0,2.8878544E1,4.250211E1,1.2033144E2,8.356985E1,2.4296038E0,1.7189249E1,1.7249157E1,1.1204378E1,2.95374E0,2.702314E0,2.934136E0,2.002041E1,4.6538153E0,1.4399209E1,5.1707964E0,4.924573E0,4.936651E0,1.4617777E0,1.9611735E0,1.0439913E1,4.9378414E0,1.5570983E1,3.9935746E0,3.4224445E1,5.7177286E0,3.9381542E0,7.8496733E0,5.19545E0,3.1134124E0,9.3844795E0],"tree_param":{"num_deleted":"0","num_feature":"20","num_nodes":"115","size_leaf_vector":"1"}},{"base_weights":[3.1027243E-2,-1.6465071E-1,3.6482418E-1,-2.899861E-1,2.4701563E-1,1.8422548E-1,6.9554996E-1,-4.098702E-1,1.9321087E-1,4.0370074E-1,-1.629431E-1,2.229402E-2,6.9503266E-1,7.465596E-2,7.8539217E-1,-4.998511E-1,-2.574964E-1,-1.8411835E-1,3.931195E-1,6.3919634E-1,1.0837809E-1,-4.4751796E-1,2.802752E-1,7.420167E-2,-6.704649E-1,7.532404E-1,-5.242573E-2,-5.858753E-1,5.7637256E-1,3.9584193E-1,8.843277E-1,-7.0480466E-2,-5.5449295E-1,-4.4889626E-1,-6.1114814E-2,2.1308054E-1,-5.447798E-1,4.950551E-1,-6.377893E-1,6.982426E-1,-8.387157E-2,-1.1640433E-1,2.0961058E-1,-5.0010882E-2,-1.0078319E0,5.6735986E-1,-4.2751426E-1,1.2925766E-1,-6.899883E-1,-1.089508E0,5.7146676E-2,-4.5835045E-1,8.358335E-1,1.6828245E-1,-1.21310174E-1,-3.425425E-2,8.063996E-1,-1.8228787E-1,7.3196286E-1,9.7106093E-1,2.5574058E-1,2.8338743E-2,-4.3844257E-2,-7.760905E-2,-4.0482257E-2,-5.9312847E-2,2.0423373E-2,-2.9016012E-2,2.7962005E-2,-4.1486956E-2,6.503609E-2,-7.523601E-2,9.308264E-2,7.107321E-2,2.1795172E-2,5.7959583E-2,-1.3099693E-1,9.553918E-2,3.8850397E-2,-3.508496E-2,4.187664E-2,6.946608E-2,-5.0774742E-2,-1.4037055E-1,-1.1216656E-2,9.039021E-2,7.534321E-3,-9.240549E-2,4.8890222E-2,-1.1067742E-1,1.5800176E-2,-9.8696366E-2,2.55734E-2,1.2279047E-3,-1.3977467E-1,5.7660635E-3,-7.604186E-2,5.2201804E-2,1.0581986E-1,8.836779E-2,-4.7929E-2,-3.2879397E-2,1.1446067E-1,9.312281E-2,-5.5498727E-2,2.1956326E-2,1.1613869E-1,1.2040146E-1,8.435777E-2,1.1122047E-1,-1.2831725E-2],"categories":[],"categories_nodes":[],"categories_segments":[],"categories_sizes":[],"default_left":[0,0,0,0,0,0,0,0,0,0,0,0,0,0,0,0,0,0,0,0,0,0,0,0,0,0,0,0,0,0,0,0,0,0,0,0,0,0,0,0,0,0,0,0,0,0,0,0,0,0,0,0,0,0,0,0,0,0,0,0,0,0,0,0,0,0,0,0,0,0,0,0,0,0,0,0,0,0,0,0,0,0,0,0,0,0,0,0,0,0,0,0,0,0,0,0,0,0,0,0,0,0,0,0,0,0,0,0,0,0,0],"id":5,"left_children":[1,3,5,7,9,11,13,15,17,19,21,23,25,27,29,31,33,35,37,39,41,43,45,47,49,51,-1,53,55,57,59,61,63,65,67,69,71,73,75,77,-1,-1,79,81,83,85,87,89,91,93,-1,95,97,99,-1,-1,101,103,105,107,109,-1,-1,-1,-1,-1,-1,-1,-1,-1,-1,-1,-1,-1,-1,-1,-1,-1,-1,-1,-1,-1,-1,-1,-1,-1,-1,-1,-1,-1,-1,-1,-1,-1,-1,-1,-1,-1,-1,-1,-1,-1,-1,-1,-1,-1,-1,-1,-1,-1,-1],"loss_changes":[5.056476E1,2.5258661E1,1.6958595E1,2.1783546E1,7.4189963E0,1.5402119E1,5.557541E0,3.9916382E0,5.741869E0,5.710677E0,4.2077537E0,5.176142E0,3.576748E0,4.921503E0,3.0356483E0,4.3689003E0,4.24395E0,3.9425063E0,5.5122776E0,4.602747E0,5.148438E0,4.425522E0,2.9390552E0,5.706944E0,5.846068E0,4.7060986E0,0E0,3.2630975E0,2.0443711E0,3.9426544E0,3.5268898E0,3.0352407E0,5.2088776E0,5.527569E0,4.548906E0,3.9576483E0,5.0744963E0,2.5681915E0,4.7579885E0,3.1979523E0,0E0,0E0,4.3806076E0,4.718508E0,2.7811584E0,1.56635E0,2.453786E0,4.6298866E0,2.8168907E0,2.6827173E0,0E0,5.7424444E-1,2.294506E0,2.1906598E0,0E0,0E0,3.0593867E0,3.8399758E0,2.5164142E0,7.807884E-1,3.3509843E0,0E0,0E0,0E0,0E0,0E0,0E0,0E0,0E0,0E0,0E0,0E0,0E0,0E0,0E0,0E0,0E0,0E0,0E0,0E0,0E0,0E0,0E0,0E0,0E0,0E0,0E0,0E0,0E0,0E0,0E0,0E0,0E0,0E0,0E0,0E0,0E0,0E0,0E0,0E0,0E0,0E0,0E0,0E0,0E0,0E0,0E0,0E0,0E0,0E0,0E0],"parents":[2147483647,0,0,1,1,2,2,3,3,4,4,5,5,6,6,7,7,8,8,9,9,10,10,11,11,12,12,13,13,14,14,15,15,16,16,17,17,18,18,19,19,20,20,21,21,22,22,23,23,24,24,25,25,27,27,28,28,29,29,30,30,31,31,32,32,33,33,34,34,35,35,36,36,37,37,38,38,39,39,42,42,43,43,44,44,45,45,46,46,47,47,48,48,49,49,51,51,52,52,53,53,56,56,57,57,58,58,59,59,60,60],"right_children":[2,4,6,8,10,12,14,16,18,20,22,24,26,28,30,32,34,36,38,40,42,44,46,48,50,52,-1,54,56,58,60,62,64,66,68,70,72,74,76,78,-1,-1,80,82,84,86,88,90,92,94,-1,96,98,100,-1,-1,102,104,106,108,110,-1,-1,-1,-1,-1,-1,-1,-1,-1,-1,-1,-1,-1,-1,-1,-1,-1,-1,-1,-1,-1,-1,-1,-1,-1,-1,-1,-1,-1,-1,-1,-1,-1,-1,-1,-1,-1,-1,-1,-1,-1,-1,-1,-1,-1,-1,-1,-1,-1,-1],"split_conditions":[4.7654903E-1,1.7495468E0,5.4471695E-1,1.4248776E0,8.034447E-1,1.7495468E0,-1.0940351E0,6.739239E-1,-4.944271E-1,-1.8361165E-1,4.4246867E-1,1.4779683E0,4.3051654E-1,-2.1746285E-1,-1.0481396E0,-1.1927726E0,-1.6047927E-3,7.323296E-2,1.5104367E0,4.334019E-1,-1.4409944E0,1.6554077E-1,-8.4363386E-2,1.6846681E0,9.678145E-1,-1.6494428E0,-5.242573E-2,-1.6047927E-3,8.111846E-1,-1.6047927E-3,1.5983739E0,3.2401457E-1,-4.2781588E-1,1.2274075E0,2.508008E-1,-7.357791E-1,1.3821867E0,1.1601769E-1,-9.635852E-1,-5.9487975E-1,-8.387157E-2,-1.1640433E-1,-1.2061882E0,-1.6047927E-3,1.1659068E0,-1.4048554E-1,-6.3535404E-1,-1.7002335E0,1.4248776E0,-6.5204537E-1,5.7146676E-2,-1.8361165E-1,1.0374614E0,-5.7730526E-1,-1.21310174E-1,-3.425425E-2,-8.024975E-1,-9.0763235E-1,2.790271E-1,-2.1005563E-1,-5.8683115E-1,2.8338743E-2,-4.3844257E-2,-7.760905E-2,-4.0482257E-2,-5.9312847E-2,2.0423373E-2,-2.9016012E-2,2.7962005E-2,-4.1486956E-2,6.503609E-2,-7.523601E-2,9.308264E-2,7.107321E-2,2.1795172E-2,5.7959583E-2,-1.3099693E-1,9.553918E-2,3.8850397E-2,-3.508496E-2,4.187664E-2,6.946608E-2,-5.0774742E-2,-1.4037055E-1,-1.1216656E-2,9.039021E-2,7.534321E-3,-9.240549E-2,4.8890222E-2,-1.1067742E-1,1.5800176E-2,-9.8696366E-2,2.55734E-2,1.2279047E-3,-1.3977467E-1,5.7660635E-3,-7.604186E-2,5.2201804E-2,1.0581986E-1,8.836779E-2,-4.7929E-2,-3.2879397E-2,1.1446067E-1,9.312281E-2,-5.5498727E-2,2.1956326E-2,1.1613869E-1,1.2040146E-1,8.435777E-2,1.1122047E-1,-1.2831725E-2],"split_indices":[16,6,10,13,0,6,15,15,1,2,1,0,10,0,0,4,13,11,1,16,1,8,16,16,8,0,0,13,10,13,16,8,0,1,2,8,10,8,8,0,0,0,16,13,8,10,10,1,13,15,0,2,16,8,0,0,11,2,1,15,1,0,0,0,0,0,0,0,0,0,0,0,0,0,0,0,0,0,0,0,0,0,0,0,0,0,0,0,0,0,0,0,0,0,0,0,0,0,0,0,0,0,0,0,0,0,0,0,0,0,0],"split_type":[0,0,0,0,0,0,0,0,0,0,0,0,0,0,0,0,0,0,0,0,0,0,0,0,0,0,0,0,0,0,0,0,0,0,0,0,0,0,0,0,0,0,0,0,0,0,0,0,0,0,0,0,0,0,0,0,0,0,0,0,0,0,0,0,0,0,0,0,0,0,0,0,0,0,0,0,0,0,0,0,0,0,0,0,0,0,0,0,0,0,0,0,0,0,0,0,0,0,0,0,0,0,0,0,0,0,0,0,0,0,0],"sum_hessian":[7.7222784E2,4.8715518E2,2.8507266E2,3.736805E2,1.13474686E2,1.8539272E2,9.967995E1,2.9951962E2,7.416089E1,8.210836E1,3.1366327E1,1.4156021E2,4.3832493E1,1.283171E1,8.6848236E1,1.8688089E2,1.1263872E2,2.5710707E1,4.845018E1,4.5033466E1,3.7074898E1,1.9095852E1,1.2270475E1,1.3252328E2,9.036932E0,4.220013E1,1.6323633E0,5.466754E0,7.3649554E0,1.8602701E1,6.824554E1,2.1356134E1,1.6552477E2,5.6391693E1,5.6247025E1,1.2430313E1,1.3280393E1,4.4563553E1,3.8866277E0,4.381067E1,1.2227981E0,1.9585524E0,3.5116344E1,1.1808048E1,7.287803E0,8.870813E0,3.3996618E0,1.2439231E2,8.130975E0,6.848795E0,2.1881375E0,2.402814E0,3.9797318E1,2.8144503E0,2.6523037E0,1.376591E0,5.9883647E0,7.007477E0,1.1595225E1,5.9491932E1,8.753603E0,1.1003731E1,1.0352404E1,6.504127E1,1.0048349E2,4.6266438E1,1.0125254E1,3.3725105E1,2.2521917E1,5.12372E0,7.3065934E0,1.2072267E1,1.208126E0,2.4179298E1,2.0384254E1,1.4315977E0,2.45503E0,2.279852E1,2.101215E1,9.359334E0,2.575701E1,4.2980833E0,7.5099654E0,4.6606364E0,2.6271667E0,4.770575E0,4.1002383E0,2.1995485E0,1.2001133E0,1.9746689E0,1.2241764E2,6.154678E0,1.9762974E0,1.7070764E0,5.1417184E0,1.1859744E0,1.2168396E0,1.7893068E1,2.1904247E1,1.163971E0,1.6504793E0,1.3809693E0,4.607395E0,1.3814642E0,5.6260123E0,5.975912E0,5.6193132E0,1.805502E1,4.1436913E1,2.1230927E0,6.63051E0],"tree_param":{"num_deleted":"0","num_feature":"20","num_nodes":"111","size_leaf_vector":"1"}},{"base_weights":[1.2943169E-2,-2.643254E-1,5.6708425E-1,5.5199753E-2,-4.4628164E-1,4.431013E-1,9.9743915E-1,-1.0568753E-1,3.6331013E-1,-5.77825E-1,-5.1733706E-2,7.512933E-1,2.748913E-1,1.1106609E0,7.023886E-1,9.796374E-2,-3.01E-1,6.631975E-1,1.8956548E-1,-6.6161585E-1,-2.0192982E-1,-1.4380798E-1,6.516579E-1,5.049934E-1,1.0760516E-1,1.6776998E-1,6.6656995E-1,2.1268086E-1,1.1648502E0,-7.264597E-2,9.4156235E-1,-1.4864592E-3,1.0538586E0,-5.5685425E-1,-6.93539E-2,1.0490807E0,3.2735223E-1,-2.4013276E-1,4.887092E-1,-9.411673E-1,-5.239329E-1,-4.4025436E-1,2.817878E-1,-5.144586E-2,-5.842009E-1,1.16630435E-1,-1.7565404E-1,7.792498E-2,8.198077E-1,-1.2252749E-2,5.2277803E-1,8.1543213E-1,-3.7865442E-1,7.6451E-2,-3.6593433E-2,5.1711863E-1,1.1987672E0,-6.7936337E-1,8.6932234E-2,1.2400036E-1,3.1197095E-1,2.0895613E-2,-5.1960554E-2,2.7836323E-2,1.2561552E-1,-8.8410154E-2,-2.387271E-2,-2.343937E-2,3.810423E-2,1.2747326E-1,2.557203E-3,8.7384984E-2,-1.2035976E-2,3.17661E-2,-7.166215E-2,-5.6317504E-3,6.847305E-2,-6.451275E-2,-1.1683004E-1,-4.3728855E-2,-1.1964691E-1,-1.3060318E-1,-2.9315606E-2,7.2229445E-2,-1.6716523E-2,-3.6240537E-2,1.4061919E-2,5.928898E-2,-7.633059E-2,8.283108E-2,-7.5041585E-2,-3.0271932E-2,4.5930605E-2,1.0937953E-1,8.897896E-3,3.727023E-2,-1.686632E-2,-8.217972E-2,5.952841E-2,1.0915112E-1,4.5211162E-2,-8.9598425E-2,4.8128676E-2,8.234414E-2,-7.084896E-3,1.2542294E-1,7.026533E-2,-1.3072853E-1,1.3377498E-2,-3.7554465E-2,7.1768954E-2],"categories":[],"categories_nodes":[],"categories_segments":[],"categories_sizes":[],"default_left":[0,0,0,0,0,0,0,0,0,0,0,0,0,0,0,0,0,0,0,0,0,0,0,0,0,0,0,0,0,0,0,0,0,0,0,0,0,0,0,0,0,0,0,0,0,0,0,0,0,0,0,0,0,0,0,0,0,0,0,0,0,0,0,0,0,0,0,0,0,0,0,0,0,0,0,0,0,0,0,0,0,0,0,0,0,0,0,0,0,0,0,0,0,0,0,0,0,0,0,0,0,0,0,0,0,0,0,0,0,0,0],"id":6,"left_children":[1,3,5,7,9,11,13,15,17,19,21,23,25,27,29,31,33,35,37,39,41,43,45,47,-1,49,51,53,55,57,59,61,63,65,67,69,71,73,75,77,79,81,83,85,87,-1,89,91,93,95,97,99,101,-1,-1,103,105,107,-1,-1,109,-1,-1,-1,-1,-1,-1,-1,-1,-1,-1,-1,-1,-1,-1,-1,-1,-1,-1,-1,-1,-1,-1,-1,-1,-1,-1,-1,-1,-1,-1,-1,-1,-1,-1,-1,-1,-1,-1,-1,-1,-1,-1,-1,-1,-1,-1,-1,-1,-1,-1],"loss_changes":[1.1722629E2,2.9591724E1,1.3133842E1,9.229468E0,1.6793083E1,1.0126808E1,1.0942192E0,4.905267E0,3.2000704E0,7.519905E0,5.4138584E0,5.0399513E0,5.3646307E0,1.6416321E0,3.4569426E0,5.7780733E0,3.684432E0,2.6392365E0,5.492346E0,7.137924E0,5.396125E0,2.9578614E0,4.330235E0,5.526519E0,0E0,6.642142E0,4.6179514E0,1.3759339E0,1.7964554E-1,3.5848558E0,2.2513742E0,6.218519E0,5.488682E-1,2.8816109E0,2.6248798E0,2.3361015E0,3.47159E0,4.96735E0,2.7075772E0,3.5610466E0,7.3489227E0,3.5686173E0,3.2265716E0,3.7430482E0,3.117035E0,0E0,3.2672653E0,2.860926E0,4.6745567E0,4.269885E0,3.897337E0,1.9699554E0,2.2710068E0,0E0,0E0,7.012372E-1,4.9419403E-2,2.088579E0,0E0,0E0,1.9017255E0,0E0,0E0,0E0,0E0,0E0,0E0,0E0,0E0,0E0,0E0,0E0,0E0,0E0,0E0,0E0,0E0,0E0,0E0,0E0,0E0,0E0,0E0,0E0,0E0,0E0,0E0,0E0,0E0,0E0,0E0,0E0,0E0,0E0,0E0,0E0,0E0,0E0,0E0,0E0,0E0,0E0,0E0,0E0,0E0,0E0,0E0,0E0,0E0,0E0,0E0],"parents":[2147483647,0,0,1,1,2,2,3,3,4,4,5,5,6,6,7,7,8,8,9,9,10,10,11,11,12,12,13,13,14,14,15,15,16,16,17,17,18,18,19,19,20,20,21,21,22,22,23,23,25,25,26,26,27,27,28,28,29,29,30,30,31,31,32,32,33,33,34,34,35,35,36,36,37,37,38,38,39,39,40,40,41,41,42,42,43,43,44,44,46,46,47,47,48,48,49,49,50,50,51,51,52,52,55,55,56,56,57,57,60,60],"right_children":[2,4,6,8,10,12,14,16,18,20,22,24,26,28,30,32,34,36,38,40,42,44,46,48,-1,50,52,54,56,58,60,62,64,66,68,70,72,74,76,78,80,82,84,86,88,-1,90,92,94,96,98,100,102,-1,-1,104,106,108,-1,-1,110,-1,-1,-1,-1,-1,-1,-1,-1,-1,-1,-1,-1,-1,-1,-1,-1,-1,-1,-1,-1,-1,-1,-1,-1,-1,-1,-1,-1,-1,-1,-1,-1,-1,-1,-1,-1,-1,-1,-1,-1,-1,-1,-1,-1,-1,-1,-1,-1,-1,-1],"split_conditions":[1.0891052E0,-4.334019E-1,1.7495468E0,5.4471695E-1,1.7495468E0,-4.334019E-1,8.1786424E-1,-4.5531146E-2,-4.7321993E-1,1.4248776E0,1.306053E0,2.4018252E-1,1.4248776E0,-1.5601112E0,1.0335997E0,1.5546061E0,7.323296E-2,-2.3383935E-1,3.956049E-1,-6.383807E-1,6.2085056E-1,1.1414878E0,1.6037613E-2,-1.253197E0,1.0760516E-1,5.0665015E-1,1.5579034E0,-6.0599035E-1,-1.1927726E0,-1.182561E-1,6.952909E-1,-8.217259E-1,-8.024975E-1,-8.936029E-2,1.7495468E0,1.8246939E0,-1.1237557E0,1.0395855E0,-1.3826383E0,-1.2451926E0,1.508218E0,-1.1972406E0,6.4527583E-1,-3.783184E-1,-9.302494E-1,1.16630435E-1,-1.2131023E0,1.7534664E-1,7.461717E-1,2.138047E-1,-3.9025483E-1,1.8622692E-1,5.280896E-1,7.6451E-2,-3.6593433E-2,-8.64873E-1,1.239847E0,-6.3535404E-1,8.6932234E-2,1.2400036E-1,9.9393755E-1,2.0895613E-2,-5.1960554E-2,2.7836323E-2,1.2561552E-1,-8.8410154E-2,-2.387271E-2,-2.343937E-2,3.810423E-2,1.2747326E-1,2.557203E-3,8.7384984E-2,-1.2035976E-2,3.17661E-2,-7.166215E-2,-5.6317504E-3,6.847305E-2,-6.451275E-2,-1.1683004E-1,-4.3728855E-2,-1.1964691E-1,-1.3060318E-1,-2.9315606E-2,7.2229445E-2,-1.6716523E-2,-3.6240537E-2,1.4061919E-2,5.928898E-2,-7.633059E-2,8.283108E-2,-7.5041585E-2,-3.0271932E-2,4.5930605E-2,1.0937953E-1,8.897896E-3,3.727023E-2,-1.686632E-2,-8.217972E-2,5.952841E-2,1.0915112E-1,4.5211162E-2,-8.9598425E-2,4.8128676E-2,8.234414E-2,-7.084896E-3,1.2542294E-1,7.026533E-2,-1.3072853E-1,1.3377498E-2,-3.7554465E-2,7.1768954E-2],"split_indices":[12,9,6,10,6,9,9,4,2,13,10,10,13,0,9,0,11,7,2,7,10,0,3,9,0,10,15,9,4,7,0,9,11,7,6,11,9,10,9,7,9,2,9,7,12,0,0,0,0,9,9,0,4,0,0,9,7,10,0,0,0,0,0,0,0,0,0,0,0,0,0,0,0,0,0,0,0,0,0,0,0,0,0,0,0,0,0,0,0,0,0,0,0,0,0,0,0,0,0,0,0,0,0,0,0,0,0,0,0,0,0],"split_type":[0,0,0,0,0,0,0,0,0,0,0,0,0,0,0,0,0,0,0,0,0,0,0,0,0,0,0,0,0,0,0,0,0,0,0,0,0,0,0,0,0,0,0,0,0,0,0,0,0,0,0,0,0,0,0,0,0,0,0,0,0,0,0,0,0,0,0,0,0,0,0,0,0,0,0,0,0,0,0,0,0,0,0,0,0,0,0,0,0,0,0,0,0,0,0,0,0,0,0,0,0,0,0,0,0,0,0,0,0,0,0],"sum_hessian":[7.6098834E2,5.075533E2,2.5343506E2,1.844121E2,3.231412E2,1.9832755E2,5.5107502E1,1.2158206E2,6.2830032E1,2.4199492E2,8.114629E1,6.880238E1,1.2952518E2,3.7827415E1,1.7280087E1,5.9764435E1,6.181763E1,2.2014832E1,4.08152E1,1.9726291E2,4.4732006E1,7.245717E1,8.689125E0,4.058062E1,2.8221764E1,1.0283019E2,2.669498E1,2.433087E0,3.539433E1,4.2392387E0,1.3040847E1,5.5036903E1,4.727531E0,2.870686E1,3.311077E1,9.256032E0,1.2758799E1,1.6833035E1,2.3982164E1,6.316894E1,1.3409396E2,3.0027504E1,1.4704503E1,6.0818687E1,1.1638478E1,5.1042004E0,3.5849245E0,1.774957E1,2.2831047E1,6.887136E1,3.3958828E1,2.3559462E1,3.1355188E0,1.0809257E0,1.3521615E0,2.569513E0,3.2824818E1,2.7480292E0,1.4912095E0,8.18936E0,4.851487E0,3.9564026E1,1.54728775E1,1.4696618E0,3.2578692E0,1.3273624E1,1.5433236E1,2.458252E1,8.528252E0,7.382882E0,1.8731496E0,5.316917E0,7.441882E0,7.908457E0,8.924578E0,6.53226E0,1.7449905E1,2.909176E1,3.4077183E1,1.20251854E2,1.3842112E1,3.2166448E0,2.681086E1,7.114757E0,7.5897455E0,2.2883184E1,3.7935505E1,1.2319193E0,1.0406559E1,1.1445483E0,2.4403763E0,8.986593E0,8.762979E0,1.624438E1,6.5866666E0,1.9498674E1,4.937269E1,1.2087746E0,3.2750053E1,1.2248125E1,1.13113365E1,1.931587E0,1.2039318E0,1.4260656E0,1.1434474E0,2.8149755E1,4.6750607E0,1.2077087E0,1.5403206E0,1.8280735E0,3.0234137E0],"tree_param":{"num_deleted":"0","num_feature":"20","num_nodes":"111","size_leaf_vector":"1"}},{"base_weights":[3.3168101E-3,3.1462035E-1,-1.723161E-1,1.9686866E-1,6.8473935E-1,-2.834478E-1,1.785403E-1,8.085081E-2,4.3278378E-1,5.196377E-1,1.0251831E0,-3.5648215E-1,2.3815442E-2,4.8877373E-2,6.2139034E-1,-1.5532751E-1,2.2505417E-1,6.0582376E-1,1.0614215E-1,5.8163387E-1,-2.5539455E-1,1.1581806E0,2.7506432E-1,-5.1449925E-1,-2.3108558E-1,-2.592907E-1,2.6008245E-1,-9.894971E-2,6.008756E-1,6.214306E-2,7.925063E-1,-2.915383E-1,3.9965847E-1,7.0809536E-2,5.1484543E-1,-4.289411E-1,6.7929983E-1,5.660828E-1,-2.195835E-1,9.0039656E-2,7.057545E-1,8.407584E-2,-1.03847824E-1,3.3370703E-1,1.296616E-1,-2.6300652E-2,6.1208654E-2,-7.783735E-2,-5.7352513E-1,-3.7501666E-1,-1.4138073E-4,-6.448554E-1,2.4894169E-1,7.520448E-1,6.67056E-2,-3.717716E-1,1.4282465E-1,3.199791E-1,1.0185416E0,-4.7760567E-1,6.638791E-1,6.379094E-2,1.0457032E0,3.35364E-2,-5.061698E-2,7.218582E-2,-1.2297209E-1,-7.878958E-3,6.137669E-2,6.644508E-2,-2.4764886E-2,-1.205283E-1,4.857875E-2,8.2996465E-2,1.4050682E-2,-1.982004E-2,8.472773E-2,-9.209981E-2,9.847595E-3,5.5888414E-2,-4.400264E-2,4.9776014E-2,1.03959456E-1,9.119957E-2,-5.5436965E-2,-7.5337246E-2,2.0048885E-2,-6.55165E-2,-1.3500814E-2,-4.1049223E-2,9.687542E-2,8.562657E-3,-6.053108E-2,-8.3237305E-2,1.8466888E-2,7.7171855E-2,-1.5335587E-2,1.0944436E-1,1.39319245E-2,-4.378377E-2,2.8483836E-2,-7.097756E-2,4.403153E-3,9.415292E-2,-8.720302E-4,4.915183E-2,-7.4453674E-2,2.8657055E-2,1.295044E-1,7.8088506E-3,-9.61917E-2,9.168198E-2,4.9373093E-3,8.217449E-2,-6.866702E-2,1.330591E-1,5.501425E-2],"categories":[],"categories_nodes":[],"categories_segments":[],"categories_sizes":[],"default_left":[0,0,0,0,0,0,0,0,0,0,0,0,0,0,0,0,0,0,0,0,0,0,0,0,0,0,0,0,0,0,0,0,0,0,0,0,0,0,0,0,0,0,0,0,0,0,0,0,0,0,0,0,0,0,0,0,0,0,0,0,0,0,0,0,0,0,0,0,0,0,0,0,0,0,0,0,0,0,0,0,0,0,0,0,0,0,0,0,0,0,0,0,0,0,0,0,0,0,0,0,0,0,0,0,0,0,0,0,0,0,0,0,0,0,0,0,0],"id":7,"left_children":[1,3,5,7,9,11,13,15,17,19,21,23,25,27,29,31,33,35,37,39,41,43,45,47,49,51,53,55,57,59,61,63,65,67,69,71,73,75,77,79,81,-1,-1,83,-1,-1,-1,85,87,89,91,93,95,97,99,101,103,105,107,109,111,113,115,-1,-1,-1,-1,-1,-1,-1,-1,-1,-1,-1,-1,-1,-1,-1,-1,-1,-1,-1,-1,-1,-1,-1,-1,-1,-1,-1,-1,-1,-1,-1,-1,-1,-1,-1,-1,-1,-1,-1,-1,-1,-1,-1,-1,-1,-1,-1,-1,-1,-1,-1,-1,-1,-1],"loss_changes":[4.189209E1,1.1909405E1,1.915055E1,5.7417746E0,3.193718E0,8.365519E0,6.771051E0,4.895378E0,3.8553772E0,2.3911781E0,1.7389183E0,5.8443336E0,4.913905E0,7.6243844E0,2.509736E0,4.2510953E0,3.9425173E0,3.7218876E0,3.9037607E0,2.5920353E0,4.4369903E0,1.5311661E0,9.6204054E-1,3.3663216E0,5.6377516E0,6.717523E0,3.7546573E0,4.9331036E0,1.988162E0,2.7042973E0,3.6955328E0,6.156516E0,6.7675347E0,4.861403E0,3.6737328E0,3.1451533E0,3.334692E0,2.4757597E0,3.546187E0,2.7111614E0,1.8851986E0,0E0,0E0,2.467537E0,0E0,0E0,0E0,3.3315425E0,4.079563E0,5.3787203E0,3.4837651E0,3.156684E0,3.3058412E0,2.194632E0,3.4051664E0,4.955478E0,4.8432217E0,2.785684E0,1.1413975E0,1.2744163E0,5.5997765E-1,4.1608315E0,1.3952293E0,0E0,0E0,0E0,0E0,0E0,0E0,0E0,0E0,0E0,0E0,0E0,0E0,0E0,0E0,0E0,0E0,0E0,0E0,0E0,0E0,0E0,0E0,0E0,0E0,0E0,0E0,0E0,0E0,0E0,0E0,0E0,0E0,0E0,0E0,0E0,0E0,0E0,0E0,0E0,0E0,0E0,0E0,0E0,0E0,0E0,0E0,0E0,0E0,0E0,0E0,0E0,0E0,0E0,0E0],"parents":[2147483647,0,0,1,1,2,2,3,3,4,4,5,5,6,6,7,7,8,8,9,9,10,10,11,11,12,12,13,13,14,14,15,15,16,16,17,17,18,18,19,19,20,20,21,21,22,22,23,23,24,24,25,25,26,26,27,27,28,28,29,29,30,30,31,31,32,32,33,33,34,34,35,35,36,36,37,37,38,38,39,39,40,40,43,43,47,47,48,48,49,49,50,50,51,51,52,52,53,53,54,54,55,55,56,56,57,57,58,58,59,59,60,60,61,61,62,62],"right_children":[2,4,6,8,10,12,14,16,18,20,22,24,26,28,30,32,34,36,38,40,42,44,46,48,50,52,54,56,58,60,62,64,66,68,70,72,74,76,78,80,82,-1,-1,84,-1,-1,-1,86,88,90,92,94,96,98,100,102,104,106,108,110,112,114,116,-1,-1,-1,-1,-1,-1,-1,-1,-1,-1,-1,-1,-1,-1,-1,-1,-1,-1,-1,-1,-1,-1,-1,-1,-1,-1,-1,-1,-1,-1,-1,-1,-1,-1,-1,-1,-1,-1,-1,-1,-1,-1,-1,-1,-1,-1,-1,-1,-1,-1,-1,-1,-1,-1],"split_conditions":[-4.334019E-1,1.7495468E0,1.7495468E0,5.4471695E-1,8.0934066E-1,1.4248776E0,9.634518E-1,-1.253197E0,4.3296534E-1,1.6753311E0,1.066472E0,1.6037613E-2,-2.2864917E-1,1.0371468E0,-1.1527756E0,9.876237E-1,5.110982E-1,-1.5776713E0,-1.1237557E0,-7.1484596E-1,-2.5743964E-1,-1.0140262E0,-8.024975E-1,-1.0940351E0,4.3051654E-1,2.4018252E-1,2.461323E-1,-9.599089E-2,3.7297267E-1,1.306053E0,-9.8513037E-1,-8.1175554E-1,1.6710421E0,1.4248776E0,1.5079086E0,2.4127923E-1,8.459525E-1,7.9943603E-1,-9.0802014E-1,-1.7855236E-1,6.739239E-1,8.407584E-2,-1.03847824E-1,-1.1585052E0,1.296616E-1,-2.6300652E-2,6.1208654E-2,-6.8622965E-1,1.8246939E0,1.6809467E0,1.4531406E0,1.5079086E0,-1.1826972E0,2.7824932E-1,5.7549757E-1,7.116364E-1,1.2529884E-1,1.8246939E0,7.323296E-2,1.1537858E0,1.6105875E0,-1.3318801E0,-1.01883814E-1,3.35364E-2,-5.061698E-2,7.218582E-2,-1.2297209E-1,-7.878958E-3,6.137669E-2,6.644508E-2,-2.4764886E-2,-1.205283E-1,4.857875E-2,8.2996465E-2,1.4050682E-2,-1.982004E-2,8.472773E-2,-9.209981E-2,9.847595E-3,5.5888414E-2,-4.400264E-2,4.9776014E-2,1.03959456E-1,9.119957E-2,-5.5436965E-2,-7.5337246E-2,2.0048885E-2,-6.55165E-2,-1.3500814E-2,-4.1049223E-2,9.687542E-2,8.562657E-3,-6.053108E-2,-8.3237305E-2,1.8466888E-2,7.7171855E-2,-1.5335587E-2,1.0944436E-1,1.39319245E-2,-4.378377E-2,2.8483836E-2,-7.097756E-2,4.403153E-3,9.415292E-2,-8.720302E-4,4.915183E-2,-7.4453674E-2,2.8657055E-2,1.295044E-1,7.8088506E-3,-9.61917E-2,9.168198E-2,4.9373093E-3,8.217449E-2,-6.866702E-2,1.330591E-1,5.501425E-2],"split_indices":[9,6,6,10,8,13,10,9,8,4,7,3,1,8,1,8,11,8,9,13,1,7,11,15,10,10,1,1,7,10,7,7,8,13,3,4,1,8,9,10,15,0,0,7,0,0,0,1,11,8,8,3,1,10,1,13,1,11,11,10,10,7,8,0,0,0,0,0,0,0,0,0,0,0,0,0,0,0,0,0,0,0,0,0,0,0,0,0,0,0,0,0,0,0,0,0,0,0,0,0,0,0,0,0,0,0,0,0,0,0,0,0,0,0,0,0,0],"split_type":[0,0,0,0,0,0,0,0,0,0,0,0,0,0,0,0,0,0,0,0,0,0,0,0,0,0,0,0,0,0,0,0,0,0,0,0,0,0,0,0,0,0,0,0,0,0,0,0,0,0,0,0,0,0,0,0,0,0,0,0,0,0,0,0,0,0,0,0,0,0,0,0,0,0,0,0,0,0,0,0,0,0,0,0,0,0,0,0,0,0,0,0,0,0,0,0,0,0,0,0,0,0,0,0,0,0,0,0,0,0,0,0,0,0,0,0,0],"sum_hessian":[7.642083E2,2.7535657E2,4.8885175E2,2.1005911E2,6.5297455E1,3.7140387E2,1.1744786E2,1.4171132E2,6.8347786E1,4.5673824E1,1.9623627E1,2.9994812E2,7.145577E1,9.170712E1,2.574074E1,5.3693764E1,8.8017555E1,4.4120193E1,2.4227594E1,4.2521954E1,3.1518712E0,1.6206236E1,3.417391E0,1.3133932E2,1.6860878E2,3.246148E1,3.8994297E1,7.298281E1,1.8724312E1,6.3501415E0,1.9390598E1,4.3493744E1,1.0200022E1,5.8255016E1,2.976254E1,2.604408E0,4.1515785E1,9.738475E0,1.448912E1,8.919732E0,3.360222E1,1.2827039E0,1.8691672E0,2.8202672E0,1.3385969E1,1.4007108E0,2.0166802E0,1.59158325E1,1.1542349E2,1.03488144E2,6.5120636E1,1.8305443E1,1.4156034E1,1.018755E1,2.880675E1,3.403712E1,3.894569E1,1.225109E1,6.4732203E0,3.4562347E0,2.8939068E0,5.3229074E0,1.4067691E1,1.0949523E1,3.254422E1,8.981049E0,1.2189734E0,4.6341576E1,1.1913442E1,2.4988289E1,4.774252E0,1.2369515E0,1.3674566E0,3.2021168E1,9.49462E0,2.69867E0,7.039805E0,3.9289503E0,1.0560169E1,4.7043543E0,4.215378E0,2.2238096E1,1.1364124E1,1.6917301E0,1.1285369E0,4.14604E0,1.17697935E1,9.689099E1,1.8532501E1,1.0150299E2,1.9851559E0,5.778897E1,7.331663E0,1.4927566E1,3.3778775E0,5.7568526E0,8.399181E0,6.0311036E0,4.156446E0,8.391022E0,2.0415728E1,1.8385035E1,1.5652086E1,5.379681E0,3.356601E1,1.101446E1,1.2366313E0,2.3331642E0,4.140056E0,2.0001013E0,1.4561334E0,1.7015561E0,1.1923506E0,2.6009758E0,2.7219315E0,7.862613E0,6.205078E0],"tree_param":{"num_deleted":"0","num_feature":"20","num_nodes":"117","size_leaf_vector":"1"}},{"base_weights":[1.8364314E-2,2.6944208E-1,-1.2132766E-1,1.332534E-1,5.6232005E-1,-2.0509455E-1,1.4520112E-1,1.38753755E-2,5.250979E-1,4.36594E-1,7.5783724E-1,-3.8206843E-1,-8.539032E-2,5.314808E-1,1.0397045E-2,-7.184733E-2,3.218114E-1,6.382529E-1,-8.7555744E-2,5.3348553E-1,-5.068302E-1,-1.0577723E-1,8.508098E-1,-7.8105056E-1,-2.5458345E-1,-1.1126105E-2,-4.6936244E-1,1.2909418E-1,9.574477E-1,2.1871696E-1,-3.2102782E-1,3.7841076E-1,-1.353634E-1,-2.2618459E-1,6.384038E-1,8.087722E-1,2.8938597E-1,-4.15845E-1,6.1190546E-2,1.0378605E0,3.7294352E-1,-1.429001E-1,1.8919325E-1,5.140842E-2,-7.513607E-2,1.007988E0,2.8076378E-1,2.3947543E-1,-9.041317E-1,-1.6512747E-1,-9.961965E-1,-3.0230746E-1,8.407151E-2,-1.0375975E0,-3.1910306E-1,-6.238544E-1,3.4371856E-1,1.097873E0,-1.02973515E-2,5.251974E-1,-1.5096633E-1,-6.496799E-1,-1.8742193E-3,5.44682E-3,1.3047086E-1,-5.745985E-3,-7.160732E-2,-1.1725267E-1,9.93815E-3,1.385015E-1,2.837683E-2,-3.3626568E-2,8.829308E-2,2.409399E-3,8.859267E-2,-1.1225013E-1,2.833921E-2,4.313737E-3,1.1640531E-1,8.792042E-2,1.8677434E-2,-3.4602E-2,7.870916E-2,1.3021734E-1,7.628657E-2,-5.268967E-2,5.8068354E-2,1.3308923E-1,-8.480711E-2,-1.5508887E-1,-7.326243E-2,-2.355087E-2,3.1087888E-2,-1.1426107E-1,1.8237049E-2,-6.113217E-2,-1.2516322E-2,-9.406519E-4,4.2902246E-2,-1.2686543E-1,5.934946E-3,-6.1559018E-2,8.303198E-3,4.1672014E-2,-1.17309645E-1,-4.8667815E-2,5.2136507E-2,1.22409955E-1,-1.4464739E-2,6.4921044E-2,-1.8988734E-2,-2.8831527E-2,8.718004E-2,-8.326232E-2,6.667362E-2,7.561024E-2,-1.9896707E-2],"categories":[],"categories_nodes":[],"categories_segments":[],"categories_sizes":[],"default_left":[0,0,0,0,0,0,0,0,0,0,0,0,0,0,0,0,0,0,0,0,0,0,0,0,0,0,0,0,0,0,0,0,0,0,0,0,0,0,0,0,0,0,0,0,0,0,0,0,0,0,0,0,0,0,0,0,0,0,0,0,0,0,0,0,0,0,0,0,0,0,0,0,0,0,0,0,0,0,0,0,0,0,0,0,0,0,0,0,0,0,0,0,0,0,0,0,0,0,0,0,0,0,0,0,0,0,0,0,0,0,0,0,0,0,0,0,0],"id":8,"left_children":[1,3,5,7,9,11,13,15,17,19,21,23,25,27,29,31,33,35,37,39,41,43,45,47,49,51,53,55,57,59,61,63,65,67,69,71,73,75,-1,77,79,-1,81,-1,-1,83,85,87,89,91,93,95,97,99,101,103,105,107,-1,109,111,113,115,-1,-1,-1,-1,-1,-1,-1,-1,-1,-1,-1,-1,-1,-1,-1,-1,-1,-1,-1,-1,-1,-1,-1,-1,-1,-1,-1,-1,-1,-1,-1,-1,-1,-1,-1,-1,-1,-1,-1,-1,-1,-1,-1,-1,-1,-1,-1,-1,-1,-1,-1,-1,-1,-1],"loss_changes":[2.6717686E1,1.0785851E1,1.0959356E1,8.748296E0,1.7860126E0,7.866844E0,6.120743E0,3.8373365E0,3.084055E0,5.277074E0,2.687027E0,7.4392357E0,6.3743176E0,5.089801E0,6.162088E0,3.3070726E0,5.63493E0,1.9665279E0,2.02012E0,3.6743822E0,3.8737679E0,2.000181E0,2.3432732E0,4.723238E0,7.4838123E0,5.2502956E0,2.7626038E0,2.928804E0,2.29E0,6.285204E0,3.6133037E0,4.231267E0,4.505794E0,3.9144084E0,4.9873047E0,2.3594475E0,2.1470742E0,3.1981049E0,0E0,1.3995609E0,3.56887E0,0E0,1.5787351E0,0E0,0E0,6.3562965E-1,2.1763196E0,6.6506157E0,2.4385452E0,3.5599551E0,2.315445E0,2.4775672E0,4.609668E0,1.8833032E0,3.639873E0,2.8212824E0,2.2770376E0,2.2152529E0,0E0,2.7987566E0,3.8480606E0,4.6430874E0,2.9120216E0,0E0,0E0,0E0,0E0,0E0,0E0,0E0,0E0,0E0,0E0,0E0,0E0,0E0,0E0,0E0,0E0,0E0,0E0,0E0,0E0,0E0,0E0,0E0,0E0,0E0,0E0,0E0,0E0,0E0,0E0,0E0,0E0,0E0,0E0,0E0,0E0,0E0,0E0,0E0,0E0,0E0,0E0,0E0,0E0,0E0,0E0,0E0,0E0,0E0,0E0,0E0,0E0,0E0,0E0],"parents":[2147483647,0,0,1,1,2,2,3,3,4,4,5,5,6,6,7,7,8,8,9,9,10,10,11,11,12,12,13,13,14,14,15,15,16,16,17,17,18,18,19,19,20,20,21,21,22,22,23,23,24,24,25,25,26,26,27,27,28,28,29,29,30,30,31,31,32,32,33,33,34,34,35,35,36,36,37,37,39,39,40,40,42,42,45,45,46,46,47,47,48,48,49,49,50,50,51,51,52,52,53,53,54,54,55,55,56,56,57,57,59,59,60,60,61,61,62,62],"right_children":[2,4,6,8,10,12,14,16,18,20,22,24,26,28,30,32,34,36,38,40,42,44,46,48,50,52,54,56,58,60,62,64,66,68,70,72,74,76,-1,78,80,-1,82,-1,-1,84,86,88,90,92,94,96,98,100,102,104,106,108,-1,110,112,114,116,-1,-1,-1,-1,-1,-1,-1,-1,-1,-1,-1,-1,-1,-1,-1,-1,-1,-1,-1,-1,-1,-1,-1,-1,-1,-1,-1,-1,-1,-1,-1,-1,-1,-1,-1,-1,-1,-1,-1,-1,-1,-1,-1,-1,-1,-1,-1,-1,-1,-1,-1,-1,-1,-1],"split_conditions":[-4.334019E-1,6.2085056E-1,1.7495468E0,1.7495468E0,4.461171E-1,-2.9163095E-1,-3.0185083E-1,1.4248776E0,-6.0599035E-1,1.8622692E-1,-1.1972406E0,-9.779553E-1,1.4092339E0,-1.182561E-1,4.3480563E-1,-9.7854304E-1,-1.8745323E-1,-1.4048554E-1,-4.7654903E-1,-9.0763235E-1,-6.1802405E-1,7.323296E-2,1.3885207E0,-1.0940351E0,1.4506301E0,-1.0524365E0,-4.5077942E-2,-9.059623E-1,1.4219238E0,-1.8361165E-1,-2.5468597E-1,1.1017103E0,1.3093349E0,-9.398885E-1,3.5419902E-1,-1.6494428E0,9.748215E-1,7.323296E-2,6.1190546E-2,-1.4538476E0,-4.4600666E-1,-1.429001E-1,8.149E-1,5.140842E-2,-7.513607E-2,8.842369E-1,-6.0948485E-1,-3.3234152E-1,-6.5204537E-1,1.4219238E0,1.6376593E0,-5.9728724E-1,1.0776522E0,8.492514E-1,5.1332796E-1,-9.313843E-1,-1.0350862E0,1.3441199E0,-1.02973515E-2,1.3885207E0,2.2735113E-1,1.1196256E0,-9.7854304E-1,5.44682E-3,1.3047086E-1,-5.745985E-3,-7.160732E-2,-1.1725267E-1,9.93815E-3,1.385015E-1,2.837683E-2,-3.3626568E-2,8.829308E-2,2.409399E-3,8.859267E-2,-1.1225013E-1,2.833921E-2,4.313737E-3,1.1640531E-1,8.792042E-2,1.8677434E-2,-3.4602E-2,7.870916E-2,1.3021734E-1,7.628657E-2,-5.268967E-2,5.8068354E-2,1.3308923E-1,-8.480711E-2,-1.5508887E-1,-7.326243E-2,-2.355087E-2,3.1087888E-2,-1.1426107E-1,1.8237049E-2,-6.113217E-2,-1.2516322E-2,-9.406519E-4,4.2902246E-2,-1.2686543E-1,5.934946E-3,-6.1559018E-2,8.303198E-3,4.1672014E-2,-1.17309645E-1,-4.8667815E-2,5.2136507E-2,1.22409955E-1,-1.4464739E-2,6.4921044E-2,-1.8988734E-2,-2.8831527E-2,8.718004E-2,-8.326232E-2,6.667362E-2,7.561024E-2,-1.9896707E-2],"split_indices":[9,10,6,6,0,7,14,13,9,0,2,10,2,7,0,3,0,10,9,2,2,11,4,15,0,2,9,4,9,2,10,4,0,10,0,0,2,11,0,0,19,0,4,0,0,0,7,4,15,9,9,10,10,10,3,0,0,10,0,4,0,2,3,0,0,0,0,0,0,0,0,0,0,0,0,0,0,0,0,0,0,0,0,0,0,0,0,0,0,0,0,0,0,0,0,0,0,0,0,0,0,0,0,0,0,0,0,0,0,0,0,0,0,0,0,0,0],"split_type":[0,0,0,0,0,0,0,0,0,0,0,0,0,0,0,0,0,0,0,0,0,0,0,0,0,0,0,0,0,0,0,0,0,0,0,0,0,0,0,0,0,0,0,0,0,0,0,0,0,0,0,0,0,0,0,0,0,0,0,0,0,0,0,0,0,0,0,0,0,0,0,0,0,0,0,0,0,0,0,0,0,0,0,0,0,0,0,0,0,0,0,0,0,0,0,0,0,0,0,0,0,0,0,0,0,0,0,0,0,0,0,0,0,0,0,0,0],"sum_hessian":[7.598296E2,2.7129108E2,4.885385E2,1.8617458E2,8.5116486E1,3.718887E2,1.1664979E2,1.4349368E2,4.2680893E1,5.377187E1,3.1344614E1,1.49166E2,2.2272272E2,2.941598E1,8.723381E1,1.1284638E2,3.06473E1,3.5991585E1,6.6893086E0,4.915779E1,4.61408E0,3.0330586E0,2.8311556E1,3.48794E1,1.142866E2,1.874893E2,3.5233414E1,1.5796751E1,1.3619228E1,5.377386E1,3.345995E1,1.3337893E1,9.950849E1,1.1326903E1,1.9320396E1,2.328974E1,1.2701846E1,4.828534E0,1.8607748E0,1.0549546E1,3.8608242E1,1.5316646E0,3.0824156E0,1.6512704E0,1.3817881E0,2.1590242E1,6.7213135E0,3.652131E0,3.1227268E1,1.0307588E2,1.1210718E1,4.5658348E1,1.4183096E2,6.1333976E0,2.9100014E1,3.0810468E0,1.2715704E1,1.1995428E1,1.6238003E0,2.917013E1,2.460373E1,1.5974445E1,1.7485502E1,1.06664505E1,2.6714425E0,8.870717E1,1.0801321E1,2.233412E0,9.093492E0,5.286117E0,1.403428E1,1.2016337E0,2.2088106E1,9.512058E0,3.189788E0,2.1004624E0,2.7280717E0,1.3387308E0,9.210815E0,9.3794775E0,2.9228765E1,1.8487583E0,1.2336572E0,7.8530293E0,1.3737213E1,1.6151224E0,5.106191E0,1.7111424E0,1.9409887E0,4.8594656E0,2.6367804E1,9.023864E1,1.2837241E1,9.99904E0,1.2116787E0,1.5743704E1,2.9914644E1,1.1235632E2,2.9474636E1,4.9369626E0,1.1964351E0,1.644477E1,1.2655244E1,1.1477817E0,1.9332652E0,1.9343107E0,1.0781393E1,1.0902661E1,1.092767E0,2.4937489E1,4.2326417E0,2.232392E1,2.2798107E0,1.4348001E1,1.6264445E0,3.0230865E0,1.4462417E1],"tree_param":{"num_deleted":"0","num_feature":"20","num_nodes":"117","size_leaf_vector":"1"}},{"base_weights":[-1.0363159E-2,-2.6885015E-1,5.215692E-1,-1.0890868E-2,-4.1400796E-1,1.6955478E-1,6.431991E-1,-1.5592705E-1,2.0543663E-1,-5.369389E-1,-1.4426807E-1,2.7316275E-1,-7.182809E-1,1.1462524E0,5.5051035E-1,-2.3103032E-1,7.033818E-1,1.0132681E0,1.23512864E-1,-6.0408723E-1,-2.4501553E-1,-5.093155E-1,4.7134785E-3,5.71E-1,-7.111899E-2,-1.1860032E0,6.353643E-2,1.2165803E0,2.782236E-1,8.4065926E-1,3.905913E-1,-9.357148E-1,-1.8013358E-1,1.2898225E-1,-3.2939994E-1,-6.4796867E-4,1.2231493E-1,-4.1852534E-1,2.2265124E-1,-6.8119234E-1,-3.535152E-1,5.299295E-2,-4.6197593E-1,-6.2356216E-1,8.614299E-2,-4.2407638E-1,1.1800142E-1,-3.947348E-1,7.1482974E-1,1.7262712E-1,-1.2566133E0,-1.6448714E-1,-1.8223535E-2,1.2772154E0,1.6261999E-2,-3.7760615E-2,8.254742E-2,4.3544853E-1,1.0146933E0,-1.4279385E-1,4.973478E-1,1.5268229E-2,-1.208391E-1,-2.6017886E-3,-3.8189117E-2,3.2301158E-2,-9.012159E-2,3.6279596E-2,-8.343724E-2,-1.6614193E-2,3.917299E-2,-9.076265E-2,-4.8195604E-2,-5.921769E-2,8.495E-3,-1.0013304E-1,3.4715056E-2,6.0178157E-2,-6.1917704E-2,-1.1388647E-2,-9.4618134E-2,-7.923173E-3,-1.2944327E-1,7.4633695E-2,-7.898738E-3,6.353815E-2,-1.1268766E-1,3.7672423E-2,9.580117E-2,-2.4908276E-2,8.995314E-2,-1.4559153E-1,-3.6380406E-2,7.594978E-2,1.3647282E-1,8.509384E-3,9.951833E-2,1.1766233E-1,6.7347705E-2,-8.8656716E-2,2.5415465E-2,5.5260416E-2,-2.5063312E-2],"categories":[],"categories_nodes":[],"categories_segments":[],"categories_sizes":[],"default_left":[0,0,0,0,0,0,0,0,0,0,0,0,0,0,0,0,0,0,0,0,0,0,0,0,0,0,0,0,0,0,0,0,0,0,0,0,0,0,0,0,0,0,0,0,0,0,0,0,0,0,0,0,0,0,0,0,0,0,0,0,0,0,0,0,0,0,0,0,0,0,0,0,0,0,0,0,0,0,0,0,0,0,0,0,0,0,0,0,0,0,0,0,0,0,0,0,0,0,0,0,0,0,0],"id":9,"left_children":[1,3,5,7,9,11,13,15,17,19,21,23,25,27,29,31,33,35,37,39,41,43,45,47,49,51,-1,53,55,57,59,61,63,-1,65,-1,-1,67,69,71,73,75,77,79,-1,81,83,85,87,89,91,-1,-1,93,-1,-1,-1,95,97,99,101,-1,-1,-1,-1,-1,-1,-1,-1,-1,-1,-1,-1,-1,-1,-1,-1,-1,-1,-1,-1,-1,-1,-1,-1,-1,-1,-1,-1,-1,-1,-1,-1,-1,-1,-1,-1,-1,-1,-1,-1,-1,-1],"loss_changes":[1.0297606E2,1.8867096E1,1.0377541E1,5.758218E0,1.0615723E1,6.1067166E0,7.8398438E0,7.250223E0,4.751151E0,4.1871033E0,5.567306E0,6.0149612E0,5.1792397E0,1.330616E0,6.8790283E0,3.4808235E0,5.920893E0,1.430212E0,3.7492409E0,3.2197723E0,2.807245E0,5.1829014E0,3.628101E0,4.6366844E0,8.282935E0,2.2537794E0,0E0,1.389698E0,1.5124786E0,3.3891373E0,5.8794737E0,2.1478715E0,2.979267E0,0E0,1.81433E0,0E0,0E0,3.8335052E0,3.8889396E0,5.693058E0,4.678346E0,6.249515E0,4.5547996E0,4.4903183E0,0E0,4.5829887E0,7.367446E0,4.266741E0,1.9118252E0,7.5910974E0,3.389039E-1,0E0,0E0,2.7751923E-2,0E0,0E0,0E0,3.4596376E0,1.2658005E0,5.477187E0,3.660593E0,0E0,0E0,0E0,0E0,0E0,0E0,0E0,0E0,0E0,0E0,0E0,0E0,0E0,0E0,0E0,0E0,0E0,0E0,0E0,0E0,0E0,0E0,0E0,0E0,0E0,0E0,0E0,0E0,0E0,0E0,0E0,0E0,0E0,0E0,0E0,0E0,0E0,0E0,0E0,0E0,0E0,0E0],"parents":[2147483647,0,0,1,1,2,2,3,3,4,4,5,5,6,6,7,7,8,8,9,9,10,10,11,11,12,12,13,13,14,14,15,15,16,16,17,17,18,18,19,19,20,20,21,21,22,22,23,23,24,24,25,25,27,27,28,28,29,29,30,30,31,31,32,32,34,34,37,37,38,38,39,39,40,40,41,41,42,42,43,43,45,45,46,46,47,47,48,48,49,49,50,50,53,53,57,57,58,58,59,59,60,60],"right_children":[2,4,6,8,10,12,14,16,18,20,22,24,26,28,30,32,34,36,38,40,42,44,46,48,50,52,-1,54,56,58,60,62,64,-1,66,-1,-1,68,70,72,74,76,78,80,-1,82,84,86,88,90,92,-1,-1,94,-1,-1,-1,96,98,100,102,-1,-1,-1,-1,-1,-1,-1,-1,-1,-1,-1,-1,-1,-1,-1,-1,-1,-1,-1,-1,-1,-1,-1,-1,-1,-1,-1,-1,-1,-1,-1,-1,-1,-1,-1,-1,-1,-1,-1,-1,-1,-1],"split_conditions":[1.0891052E0,-4.334019E-1,-7.6282823E-1,3.5438293E-1,6.969842E-1,1.5579034E0,-1.2211052E0,1.492759E0,-1.1927726E0,1.4248776E0,-6.961723E-1,1.2751049E-1,1.3767972E0,1.5513651E0,-3.039606E-1,-1.641521E0,1.6413282E0,-1.0923452E0,-1.0940351E0,8.0934066E-1,-3.880751E-2,1.6112634E0,-9.8339444E-1,-1.1927726E0,1.3885207E0,7.35051E-1,6.353643E-2,1.6753311E0,3.9244974E-1,-5.5169326E-1,-1.1682893E0,-1.6846681E0,-9.943144E-1,1.2898225E-1,-3.880751E-2,-6.4796867E-4,1.2231493E-1,-2.900715E-1,-3.0185083E-1,-9.599089E-2,5.110982E-1,-1.1972406E0,-8.024975E-1,5.1583445E-1,8.614299E-2,1.1017103E0,-4.0892684E-1,-4.4600666E-1,-1.1178842E-1,5.8278376E-1,-1.0524365E0,-1.6448714E-1,-1.8223535E-2,-9.6844745E-1,1.6261999E-2,-3.7760615E-2,8.254742E-2,1.5995996E0,3.6423078E-1,-6.0041165E-1,1.4725884E0,1.5268229E-2,-1.208391E-1,-2.6017886E-3,-3.8189117E-2,3.2301158E-2,-9.012159E-2,3.6279596E-2,-8.343724E-2,-1.6614193E-2,3.917299E-2,-9.076265E-2,-4.8195604E-2,-5.921769E-2,8.495E-3,-1.0013304E-1,3.4715056E-2,6.0178157E-2,-6.1917704E-2,-1.1388647E-2,-9.4618134E-2,-7.923173E-3,-1.2944327E-1,7.4633695E-2,-7.898738E-3,6.353815E-2,-1.1268766E-1,3.7672423E-2,9.580117E-2,-2.4908276E-2,8.995314E-2,-1.4559153E-1,-3.6380406E-2,7.594978E-2,1.3647282E-1,8.509384E-3,9.951833E-2,1.1766233E-1,6.7347705E-2,-8.8656716E-2,2.5415465E-2,5.5260416E-2,-2.5063312E-2],"split_indices":[12,9,2,10,10,15,8,8,4,13,7,9,1,9,9,9,8,8,15,8,2,1,8,4,4,10,0,4,10,7,10,9,9,0,2,0,0,8,14,1,11,2,11,9,0,4,8,19,8,10,2,0,0,1,0,0,0,5,1,1,1,0,0,0,0,0,0,0,0,0,0,0,0,0,0,0,0,0,0,0,0,0,0,0,0,0,0,0,0,0,0,0,0,0,0,0,0,0,0,0,0,0,0],"split_type":[0,0,0,0,0,0,0,0,0,0,0,0,0,0,0,0,0,0,0,0,0,0,0,0,0,0,0,0,0,0,0,0,0,0,0,0,0,0,0,0,0,0,0,0,0,0,0,0,0,0,0,0,0,0,0,0,0,0,0,0,0,0,0,0,0,0,0,0,0,0,0,0,0,0,0,0,0,0,0,0,0,0,0,0,0,0,0,0,0,0,0,0,0,0,0,0,0,0,0,0,0,0,0],"sum_hessian":[7.469101E2,5.0298456E2,2.4392554E2,1.8150607E2,3.2147852E2,6.325385E1,1.8067169E2,1.0882431E2,7.2681755E1,2.2015485E2,1.01323654E2,5.7263668E1,5.9901834E0,2.634137E1,1.5433032E2,1.0074995E2,8.074363E0,5.645393E0,6.703636E1,1.7811534E2,4.2039497E1,2.8665743E1,7.265791E1,3.0349695E1,2.691397E1,4.543962E0,1.4462214E0,2.3995691E1,2.3456786E0,5.3324436E1,1.0100588E2,5.615578E0,9.513437E1,4.9912934E0,3.0830696E0,1.1290098E0,4.516383E0,9.867001E0,5.716936E1,1.3488918E2,4.3226166E1,1.8029972E1,2.4009527E1,2.6963524E1,1.7022197E0,1.4611329E1,5.8046585E1,3.7080169E0,2.664168E1,2.3032673E1,3.8812983E0,2.6800787E0,1.8638833E0,2.249E1,1.505692E0,1.2079977E0,1.1376809E0,1.7073524E1,3.625091E1,1.6788467E1,8.4217415E1,1.213181E0,4.402397E0,5.45752E1,4.055917E1,1.6432834E0,1.4397862E0,3.471704E0,6.3952966E0,1.7332035E1,3.9837326E1,6.147109E1,7.341809E1,2.7763567E1,1.5462599E1,3.408636E0,1.4621335E1,2.7271557E0,2.1282372E1,1.0976226E1,1.5987297E1,1.1246411E1,3.3649173E0,1.3188971E1,4.4857616E1,1.5954272E0,2.1125898E0,1.2211996E1,1.4429683E1,1.4992301E1,8.040371E0,2.6573787E0,1.2239197E0,4.6514106E0,1.7838589E1,1.1209308E1,5.8642154E0,2.292374E1,1.3327171E1,5.4128346E0,1.1375633E1,7.866717E1,5.550249E0],"tree_param":{"num_deleted":"0","num_feature":"20","num_nodes":"103","size_leaf_vector":"1"}},{"base_weights":[2.6077842E-2,2.5648955E-1,-9.540629E-2,1.4464165E-1,4.8865137E-1,-1.6966838E-1,1.4349926E-1,5.5654258E-2,4.5560285E-1,2.7207538E-1,6.7877513E-1,-2.3168097E-1,2.0118495E-2,8.2009636E-2,8.077179E-1,2.0243284E-1,-1.4364414E-1,5.727284E-1,-1.1261301E-1,5.451205E-1,-2.0741755E-1,4.2343318E-1,9.7031885E-1,-3.4690502E-1,6.6174427E-3,5.637747E-1,-9.044436E-2,4.8287064E-1,-2.2745112E-2,1.0175618E0,-3.499266E-2,-1.7744388E-1,4.0077814E-1,-3.0500925E-1,2.5727934E-1,6.318002E-1,-5.466463E-2,2.7469966E-1,-1.03916526E-1,3.6809918E-1,1.0220932E0,5.0411265E-2,-1.2825231E-1,9.810459E-1,7.003472E-2,3.6391893E-1,1.1543115E0,-2.2925825E-1,-5.3561205E-1,7.3022254E-2,-7.918694E-1,-8.915154E-2,1.0398363E0,1.7668769E-1,-2.6837775E-1,6.0213793E-2,8.484075E-1,-1.4873269E-1,4.063779E-1,1.2881254E-1,1.710181E-1,-3.1745996E-2,6.505805E-2,-5.7018194E-3,6.251152E-2,-6.710973E-2,-1.5424802E-3,6.9640204E-2,-6.8265215E-2,-3.1860285E-2,6.97374E-2,-2.824924E-2,9.421873E-2,7.216582E-2,9.881041E-3,2.7555764E-2,1.1308537E-1,7.4810185E-2,-3.023992E-2,1.141112E-1,-3.5570262E-3,-5.7948258E-2,3.258818E-2,7.242425E-2,-6.519117E-2,1.2646966E-1,3.8941838E-2,3.4278408E-2,-2.9596467E-2,-8.128067E-2,-2.5404243E-2,-4.7874995E-2,1.7492596E-2,-1.5447849E-1,1.1397875E-2,6.828316E-2,-6.5624006E-2,-1.7957693E-2,1.5028657E-1,-9.501942E-2,3.5632726E-2,-7.772874E-2,-1.0824336E-2,6.096043E-2,-3.3373635E-2,-2.0086296E-2,1.0043599E-1,2.9010693E-2,-2.4108825E-2,5.3091377E-2,-8.195459E-2,-4.3629795E-2,7.3845E-2],"categories":[],"categories_nodes":[],"categories_segments":[],"categories_sizes":[],"default_left":[0,0,0,0,0,0,0,0,0,0,0,0,0,0,0,0,0,0,0,0,0,0,0,0,0,0,0,0,0,0,0,0,0,0,0,0,0,0,0,0,0,0,0,0,0,0,0,0,0,0,0,0,0,0,0,0,0,0,0,0,0,0,0,0,0,0,0,0,0,0,0,0,0,0,0,0,0,0,0,0,0,0,0,0,0,0,0,0,0,0,0,0,0,0,0,0,0,0,0,0,0,0,0,0,0,0,0,0,0,0,0,0,0],"id":10,"left_children":[1,3,5,7,9,11,13,15,17,19,21,23,25,27,29,31,33,35,37,39,41,43,45,47,49,51,53,55,57,59,-1,61,63,65,67,69,-1,71,-1,73,75,77,-1,79,81,83,85,87,89,91,93,95,97,99,101,103,105,107,109,-1,111,-1,-1,-1,-1,-1,-1,-1,-1,-1,-1,-1,-1,-1,-1,-1,-1,-1,-1,-1,-1,-1,-1,-1,-1,-1,-1,-1,-1,-1,-1,-1,-1,-1,-1,-1,-1,-1,-1,-1,-1,-1,-1,-1,-1,-1,-1,-1,-1,-1,-1,-1,-1],"loss_changes":[2.0690603E1,6.5548553E0,8.613955E0,4.778887E0,3.2139149E0,4.3569117E0,4.6449175E0,4.011144E0,2.626102E0,5.383208E0,2.811346E0,7.657694E0,5.580567E0,4.491064E0,2.7028675E0,6.0089893E0,3.8514218E0,2.4663658E0,2.9459627E0,1.8126411E0,4.313945E0,4.8280077E0,1.7483654E0,4.049923E0,4.9281898E0,4.9681716E0,3.722028E0,3.370862E0,4.6850734E0,1.7114744E0,0E0,3.4210052E0,5.3844166E0,4.446473E0,7.6071296E0,2.1499329E0,0E0,2.5047832E0,0E0,1.8776107E0,2.1242285E-1,3.5066192E0,0E0,1.596653E0,2.8952746E0,2.6626956E0,7.275982E-1,4.586022E0,5.3686047E0,4.903378E0,5.043531E0,3.7468023E0,5.4362774E0,6.7172956E0,3.7296383E0,2.6595962E0,2.1327572E0,2.7796354E0,3.4399827E0,0E0,1.4234962E0,0E0,0E0,0E0,0E0,0E0,0E0,0E0,0E0,0E0,0E0,0E0,0E0,0E0,0E0,0E0,0E0,0E0,0E0,0E0,0E0,0E0,0E0,0E0,0E0,0E0,0E0,0E0,0E0,0E0,0E0,0E0,0E0,0E0,0E0,0E0,0E0,0E0,0E0,0E0,0E0,0E0,0E0,0E0,0E0,0E0,0E0,0E0,0E0,0E0,0E0,0E0,0E0],"parents":[2147483647,0,0,1,1,2,2,3,3,4,4,5,5,6,6,7,7,8,8,9,9,10,10,11,11,12,12,13,13,14,14,15,15,16,16,17,17,18,18,19,19,20,20,21,21,22,22,23,23,24,24,25,25,26,26,27,27,28,28,29,29,31,31,32,32,33,33,34,34,35,35,37,37,39,39,40,40,41,41,43,43,44,44,45,45,46,46,47,47,48,48,49,49,50,50,51,51,52,52,53,53,54,54,55,55,56,56,57,57,58,58,60,60],"right_children":[2,4,6,8,10,12,14,16,18,20,22,24,26,28,30,32,34,36,38,40,42,44,46,48,50,52,54,56,58,60,-1,62,64,66,68,70,-1,72,-1,74,76,78,-1,80,82,84,86,88,90,92,94,96,98,100,102,104,106,108,110,-1,112,-1,-1,-1,-1,-1,-1,-1,-1,-1,-1,-1,-1,-1,-1,-1,-1,-1,-1,-1,-1,-1,-1,-1,-1,-1,-1,-1,-1,-1,-1,-1,-1,-1,-1,-1,-1,-1,-1,-1,-1,-1,-1,-1,-1,-1,-1,-1,-1,-1,-1,-1,-1],"split_conditions":[-4.334019E-1,5.4471695E-1,1.7495468E0,1.7495468E0,-1.9998588E-1,1.3424911E0,1.443236E0,2.645869E-1,-6.0599035E-1,-7.001889E-1,2.508008E-1,6.2085056E-1,-8.024975E-1,-4.4600666E-1,1.3885207E0,-1.3394912E0,-1.7855236E-1,4.3051654E-1,6.253073E-1,1.7495468E0,1.5579034E0,8.111846E-1,-3.0185083E-1,4.032515E-1,1.4346488E0,1.6037613E-2,-3.3081958E-1,5.1332796E-1,9.634518E-1,6.739239E-1,-3.499266E-2,-1.2742286E-2,-3.6463228E-1,8.984822E-1,8.7069166E-1,-1.6494428E0,-5.466463E-2,9.128406E-1,-1.03916526E-1,-6.1802405E-1,8.111846E-1,-4.7321993E-1,-1.2825231E-1,1.5079086E0,1.0776522E0,9.0955806E-1,1.1262883E0,-1.1927726E0,1.0599663E-1,-1.2640535E0,7.3157E-1,2.3193413E-1,-6.5204537E-1,-1.3205922E0,-3.6463228E-1,-8.2568806E-1,-1.0940351E0,-9.7854304E-1,1.3243806E0,1.2881254E-1,6.800574E-1,-3.1745996E-2,6.505805E-2,-5.7018194E-3,6.251152E-2,-6.710973E-2,-1.5424802E-3,6.9640204E-2,-6.8265215E-2,-3.1860285E-2,6.97374E-2,-2.824924E-2,9.421873E-2,7.216582E-2,9.881041E-3,2.7555764E-2,1.1308537E-1,7.4810185E-2,-3.023992E-2,1.141112E-1,-3.5570262E-3,-5.7948258E-2,3.258818E-2,7.242425E-2,-6.519117E-2,1.2646966E-1,3.8941838E-2,3.4278408E-2,-2.9596467E-2,-8.128067E-2,-2.5404243E-2,-4.7874995E-2,1.7492596E-2,-1.5447849E-1,1.1397875E-2,6.828316E-2,-6.5624006E-2,-1.7957693E-2,1.5028657E-1,-9.501942E-2,3.5632726E-2,-7.772874E-2,-1.0824336E-2,6.096043E-2,-3.3373635E-2,-2.0086296E-2,1.0043599E-1,2.9010693E-2,-2.4108825E-2,5.3091377E-2,-8.195459E-2,-4.3629795E-2,7.3845E-2],"split_indices":[9,10,6,6,0,19,8,8,9,0,2,10,18,19,4,9,10,10,1,6,15,10,14,8,1,3,10,3,10,15,0,8,18,8,1,0,0,14,0,2,10,2,0,3,10,1,8,4,2,0,9,15,15,1,18,10,15,3,8,0,1,0,0,0,0,0,0,0,0,0,0,0,0,0,0,0,0,0,0,0,0,0,0,0,0,0,0,0,0,0,0,0,0,0,0,0,0,0,0,0,0,0,0,0,0,0,0,0,0,0,0,0,0],"split_type":[0,0,0,0,0,0,0,0,0,0,0,0,0,0,0,0,0,0,0,0,0,0,0,0,0,0,0,0,0,0,0,0,0,0,0,0,0,0,0,0,0,0,0,0,0,0,0,0,0,0,0,0,0,0,0,0,0,0,0,0,0,0,0,0,0,0,0,0,0,0,0,0,0,0,0,0,0,0,0,0,0,0,0,0,0,0,0,0,0,0,0,0,0,0,0,0,0,0,0,0,0,0,0,0,0,0,0,0,0,0,0,0,0],"sum_hessian":[7.373039E2,2.5415396E2,4.8314996E2,1.7261621E2,8.153775E1,3.688007E2,1.1434928E2,1.3512627E2,3.748995E1,3.9253685E1,4.228407E1,2.7780692E2,9.099375E1,1.0568868E2,8.660594E0,7.780729E1,5.731897E1,3.1076294E1,6.4136553E0,2.4923973E1,1.4329712E1,2.3848919E1,1.843515E1,1.8695374E2,9.0853195E1,1.4685169E1,7.630858E1,2.1149015E1,8.4539665E1,7.434046E0,1.2265481E0,2.6726086E1,5.1081203E1,4.10402E1,1.627877E1,2.9932281E1,1.1440117E0,5.0191154E0,1.39454E0,1.9469791E1,5.454181E0,1.23266735E1,2.0030382E0,8.5624895E0,1.5286429E1,4.984667E0,1.3450482E1,1.1652361E2,7.043012E1,8.471644E1,6.1367507E0,6.535017E0,8.150152E0,3.051032E1,4.579826E1,1.0348339E1,1.0800677E1,6.5857704E1,1.8681965E1,5.238229E0,2.1958168E0,2.338788E1,3.338205E0,1.704465E1,3.4036556E1,1.7543957E1,2.3496243E1,1.1271825E1,5.0069447E0,1.6828573E0,2.8249424E1,3.0499344E0,1.969181E0,7.691489E0,1.1778302E1,1.1428993E0,4.311282E0,3.763621E0,8.563052E0,7.291918E0,1.2705717E0,3.9623303E0,1.1324099E1,3.8913996E0,1.0932673E0,1.1183162E1,2.2673204E0,1.1736687E1,1.0478693E2,3.454005E1,3.5890076E1,1.2630224E1,7.208622E1,2.9660811E0,3.1706696E0,2.6811037E0,3.8539133E0,2.4115014E0,5.738651E0,3.6052268E0,2.6905094E1,1.0039285E1,3.5758976E1,4.0929813E0,6.2553577E0,1.3603127E0,9.440364E0,1.1077988E1,5.4779713E1,1.747381E1,1.2081549E0,1.1722603E0,1.0235565E0],"tree_param":{"num_deleted":"0","num_feature":"20","num_nodes":"113","size_leaf_vector":"1"}},{"base_weights":[1.0984172E-2,-2.2679791E-1,4.9624255E-1,-3.2643297E-1,8.887011E-2,3.5444695E-1,7.65323E-1,-3.971343E-1,-3.4617625E-2,-3.5498753E-2,6.782456E-1,2.4501066E-1,7.7571505E-1,6.31297E-1,1.0124086E0,-6.322009E-1,-3.2705152E-1,-2.0630005E-1,2.7320278E-1,5.553424E-2,-4.4341674E-1,7.716656E-1,-4.8668083E-2,3.5223225E-1,-2.8183082E-1,-2.0601815E-2,8.1475645E-1,3.9589652E-1,9.0346366E-1,3.367315E-1,1.0623455E0,7.573717E-2,-7.102233E-1,-3.5557216E-1,1.845746E-1,-6.125299E-1,3.3060312E-3,-9.7951907E-1,4.6820652E-1,2.6394543E-1,-1.5122505E-1,-1.1165831E0,1.5176046E-1,4.58025E-3,9.24691E-1,1.7754138E-1,7.462509E-1,-6.320891E-1,6.814356E-1,1.0163509E0,5.0107574E-1,8.346766E-1,3.2696895E-2,1.0348741E0,-1.16989926E-1,7.390065E-2,-2.648817E-2,1.0902225E0,2.5339484E-2,7.639936E-2,-6.26215E-2,-4.1713573E-2,-9.981134E-2,-4.9497534E-2,-2.176328E-2,-2.4522899E-2,7.2093904E-2,-1.03771165E-1,-9.304142E-4,4.2450145E-2,-1.8610576E-2,-1.23474054E-1,-2.3428611E-2,-4.523194E-2,6.798889E-2,-1.7042851E-2,4.983786E-2,-3.6712047E-2,2.593915E-2,-1.4829329E-1,4.9886312E-2,5.1255383E-2,-8.627097E-2,5.5657256E-2,-5.8077343E-2,4.6678755E-2,1.176002E-1,6.0161937E-2,9.189272E-3,1.4491252E-2,9.946331E-2,-1.0813703E-1,4.265151E-2,-5.3494317E-3,8.5044555E-2,-1.4777384E-2,1.1430953E-1,-2.0762754E-3,7.4485265E-2,2.2556078E-2,9.99915E-2,9.0369895E-2,-2.4774814E-2,-1.9288665E-2,1.1052986E-1,-7.621804E-2,5.257342E-2,1.1202915E-1,3.6223367E-2],"categories":[],"categories_nodes":[],"categories_segments":[],"categories_sizes":[],"default_left":[0,0,0,0,0,0,0,0,0,0,0,0,0,0,0,0,0,0,0,0,0,0,0,0,0,0,0,0,0,0,0,0,0,0,0,0,0,0,0,0,0,0,0,0,0,0,0,0,0,0,0,0,0,0,0,0,0,0,0,0,0,0,0,0,0,0,0,0,0,0,0,0,0,0,0,0,0,0,0,0,0,0,0,0,0,0,0,0,0,0,0,0,0,0,0,0,0,0,0,0,0,0,0,0,0,0,0,0,0],"id":11,"left_children":[1,3,5,7,9,11,13,15,17,19,21,23,25,27,29,31,33,35,37,39,41,43,-1,45,47,-1,49,51,53,55,57,59,61,63,65,67,69,71,73,75,77,79,81,83,85,87,89,91,93,95,97,99,101,103,105,-1,-1,107,-1,-1,-1,-1,-1,-1,-1,-1,-1,-1,-1,-1,-1,-1,-1,-1,-1,-1,-1,-1,-1,-1,-1,-1,-1,-1,-1,-1,-1,-1,-1,-1,-1,-1,-1,-1,-1,-1,-1,-1,-1,-1,-1,-1,-1,-1,-1,-1,-1,-1,-1],"loss_changes":[8.496915E1,1.5573992E1,8.968426E0,7.741501E0,8.773261E0,7.2072754E0,2.0998917E0,4.7764015E0,3.988463E0,3.7199442E0,2.6444187E0,7.376714E0,1.4183445E0,3.2480679E0,5.6780624E-1,3.8318138E0,3.4959774E0,4.117625E0,7.0715094E0,3.5839632E0,7.488325E0,2.3067245E0,0E0,7.2661324E0,7.96839E0,0E0,1.4877205E0,5.0657268E0,3.5166473E0,1.0069363E0,2.892933E-1,4.1953864E0,4.790161E0,4.180662E0,3.1901164E0,4.211123E0,2.7019892E0,4.6575093E-1,5.0037584E0,4.29298E0,3.811645E0,5.883691E0,4.313019E0,1.7058994E0,1.3392334E0,2.6973076E0,4.740778E0,8.500193E0,8.452296E-1,2.8619633E0,1.8381126E0,1.2270727E0,4.749153E0,2.1616173E0,1.9711982E0,0E0,0E0,1.1824036E-1,0E0,0E0,0E0,0E0,0E0,0E0,0E0,0E0,0E0,0E0,0E0,0E0,0E0,0E0,0E0,0E0,0E0,0E0,0E0,0E0,0E0,0E0,0E0,0E0,0E0,0E0,0E0,0E0,0E0,0E0,0E0,0E0,0E0,0E0,0E0,0E0,0E0,0E0,0E0,0E0,0E0,0E0,0E0,0E0,0E0,0E0,0E0,0E0,0E0,0E0,0E0],"parents":[2147483647,0,0,1,1,2,2,3,3,4,4,5,5,6,6,7,7,8,8,9,9,10,10,11,11,12,12,13,13,14,14,15,15,16,16,17,17,18,18,19,19,20,20,21,21,23,23,24,24,26,26,27,27,28,28,29,29,30,30,31,31,32,32,33,33,34,34,35,35,36,36,37,37,38,38,39,39,40,40,41,41,42,42,43,43,44,44,45,45,46,46,47,47,48,48,49,49,50,50,51,51,52,52,53,53,54,54,57,57],"right_children":[2,4,6,8,10,12,14,16,18,20,22,24,26,28,30,32,34,36,38,40,42,44,-1,46,48,-1,50,52,54,56,58,60,62,64,66,68,70,72,74,76,78,80,82,84,86,88,90,92,94,96,98,100,102,104,106,-1,-1,108,-1,-1,-1,-1,-1,-1,-1,-1,-1,-1,-1,-1,-1,-1,-1,-1,-1,-1,-1,-1,-1,-1,-1,-1,-1,-1,-1,-1,-1,-1,-1,-1,-1,-1,-1,-1,-1,-1,-1,-1,-1,-1,-1,-1,-1,-1,-1,-1,-1,-1,-1],"split_conditions":[1.0891052E0,1.7495468E0,4.7654903E-1,1.4248776E0,1.0806086E0,1.7495468E0,3.1631613E-1,-9.4730556E-1,4.0186846E-1,1.1242638E0,1.4999093E0,1.2687428E0,-1.633625E0,1.12910375E-1,-1.5568218E0,-1.3896717E0,1.5495987E0,-5.808978E-1,-1.3966901E0,-9.668046E-2,-1.6047927E-3,-1.0140262E0,-4.8668083E-2,3.4407684E-1,1.6154925E0,-2.0601815E-2,4.6090278E-1,-2.900715E-1,1.641521E0,9.748215E-1,1.6988422E0,-7.1484596E-1,8.005551E-2,2.6222948E-2,8.64873E-1,3.3422512E-1,1.5442039E-1,1.0810461E-2,-9.7854304E-1,-7.3157E-1,5.4620636E-1,9.876237E-1,8.473181E-1,-2.966931E-1,1.6037613E-2,-1.360776E0,-7.6282823E-1,-2.569518E-1,-1.0032036E0,-1.4409944E0,9.832121E-1,-7.1484596E-1,7.785788E-1,5.6284326E-1,1.3895269E-1,7.390065E-2,-2.648817E-2,1.4531406E0,2.5339484E-2,7.639936E-2,-6.26215E-2,-4.1713573E-2,-9.981134E-2,-4.9497534E-2,-2.176328E-2,-2.4522899E-2,7.2093904E-2,-1.03771165E-1,-9.304142E-4,4.2450145E-2,-1.8610576E-2,-1.23474054E-1,-2.3428611E-2,-4.523194E-2,6.798889E-2,-1.7042851E-2,4.983786E-2,-3.6712047E-2,2.593915E-2,-1.4829329E-1,4.9886312E-2,5.1255383E-2,-8.627097E-2,5.5657256E-2,-5.8077343E-2,4.6678755E-2,1.176002E-1,6.0161937E-2,9.189272E-3,1.4491252E-2,9.946331E-2,-1.0813703E-1,4.265151E-2,-5.3494317E-3,8.5044555E-2,-1.4777384E-2,1.1430953E-1,-2.0762754E-3,7.4485265E-2,2.2556078E-2,9.99915E-2,9.0369895E-2,-2.4774814E-2,-1.9288665E-2,1.1052986E-1,-7.621804E-2,5.257342E-2,1.1202915E-1,3.6223367E-2],"split_indices":[12,6,16,13,16,6,10,16,7,7,7,7,0,7,1,7,1,0,10,0,13,7,0,7,7,0,0,8,16,2,2,13,0,7,16,1,0,1,3,16,1,8,0,1,3,7,2,16,8,1,0,13,16,16,0,0,0,8,0,0,0,0,0,0,0,0,0,0,0,0,0,0,0,0,0,0,0,0,0,0,0,0,0,0,0,0,0,0,0,0,0,0,0,0,0,0,0,0,0,0,0,0,0,0,0,0,0,0,0],"split_type":[0,0,0,0,0,0,0,0,0,0,0,0,0,0,0,0,0,0,0,0,0,0,0,0,0,0,0,0,0,0,0,0,0,0,0,0,0,0,0,0,0,0,0,0,0,0,0,0,0,0,0,0,0,0,0,0,0,0,0,0,0,0,0,0,0,0,0,0,0,0,0,0,0,0,0,0,0,0,0,0,0,0,0,0,0,0,0,0,0,0,0,0,0,0,0,0,0,0,0,0,0,0,0,0,0,0,0,0,0],"sum_hessian":[7.344166E2,4.9325082E2,2.4116583E2,3.7488943E2,1.1836139E2,1.5945572E2,8.171012E1,3.0148456E2,7.340488E1,9.8513115E1,1.9848276E1,1.27829895E2,3.162582E1,5.527982E1,2.6430302E1,6.739899E1,2.3408557E2,4.7334526E1,2.607035E1,8.1245766E1,1.7267347E1,1.8687256E1,1.16102E0,1.0648893E2,2.1340963E1,1.0460083E0,3.0579811E1,3.095824E1,2.4321577E1,2.3518193E0,2.4078482E1,6.693614E0,6.0705368E1,2.2201437E2,1.2071198E1,1.5456522E1,3.1878006E1,2.9696927E0,2.3100658E1,4.032351E1,4.0922256E1,7.691705E0,9.575642E0,3.2792041E0,1.54080515E1,7.478367E1,3.1705263E1,1.5902411E1,5.4385514E0,1.7252195E1,1.3327616E1,1.343244E1,1.75258E1,2.153433E1,2.7872477E0,1.2725444E0,1.0792749E0,2.2940243E1,1.1382388E0,3.3351505E0,3.3584635E0,3.129466E1,2.9410707E1,1.0913395E2,1.12880424E2,7.0026093E0,5.068589E0,8.643739E0,6.8127823E0,9.503623E0,2.2374382E1,1.7228227E0,1.2468702E0,4.1064568E0,1.8994202E1,1.4230071E1,2.6093437E1,2.6889914E1,1.4032344E1,6.336702E0,1.3550035E0,7.428481E0,2.1471605E0,1.7130014E0,1.5662029E0,6.4723883E0,8.935663E0,1.1553545E1,6.323012E1,9.730629E0,2.1974634E1,1.1149119E1,4.7532926E0,1.1446391E0,4.293912E0,1.6776215E0,1.5574574E1,4.534887E0,8.792729E0,3.3710077E0,1.0061433E1,3.7272837E0,1.3798517E1,1.0738704E0,2.0460459E1,1.2982033E0,1.4890443E0,2.151279E1,1.4274529E0],"tree_param":{"num_deleted":"0","num_feature":"20","num_nodes":"109","size_leaf_vector":"1"}},{"base_weights":[2.1245904E-2,-4.126182E-2,2.7538297E-1,-1.2410692E-1,1.3404596E-1,1.2871504E-1,4.739605E-1,-1.8542041E-1,7.422788E-2,1.6377367E-1,-6.58374E-1,2.0981336E-1,-5.6079733E-1,8.217302E-1,9.835854E-2,-8.7544166E-2,-3.1809965E-1,-6.2847205E-2,4.023776E-1,8.7488514E-1,1.348874E-1,-2.132728E-3,-1.2684862E-1,7.935151E-2,6.474407E-1,2.9235786E-2,-8.407017E-1,1.052332E0,6.623733E-2,-1.152112E-1,2.2938232E-1,9.545886E-2,-3.4876952E-1,-5.8932996E-1,-1.9234633E-1,9.097888E-3,-1.2966755E-1,1.4976838E-1,9.215959E-1,1.1556878E0,-7.7012726E-3,-2.6866248E-2,2.2808994E-1,-8.159033E-2,5.576614E-1,-3.2505016E-3,7.416734E-1,7.5748926E-1,-2.2941997E-2,-1.3270025E0,-8.1019916E-2,3.3055723E-1,1.1998658E0,-6.6831225E-1,5.888544E-1,4.4504058E-1,-4.5342618E-1,-2.0309258E-2,3.605452E-2,3.0174403E-2,-4.5028087E-2,-6.762858E-2,8.9195654E-2,2.3894822E-2,-3.0044794E-2,1.333831E-2,-5.995318E-2,-5.5917848E-2,4.047836E-2,3.901237E-2,1.17210604E-1,1.2808745E-1,3.3145707E-2,9.492353E-3,-9.124536E-2,6.1681148E-2,4.897758E-3,8.694291E-2,-3.0960192E-3,1.37452725E-2,-4.5110844E-2,-4.1511882E-2,1.06301956E-1,3.8111748E-3,9.281962E-2,-4.0966567E-2,-1.526262E-1,7.928363E-2,-7.9095796E-2,-4.895792E-2,7.4836574E-2,3.2348335E-2,1.233384E-1,4.1066155E-2,-1.3482262E-1,9.591621E-2,-4.1538286E-3,1.2582314E-1,2.0947343E-2,3.6206406E-2,-7.576906E-2],"categories":[],"categories_nodes":[],"categories_segments":[],"categories_sizes":[],"default_left":[0,0,0,0,0,0,0,0,0,0,0,0,0,0,0,0,0,0,0,0,0,0,0,0,0,0,0,0,0,0,0,0,0,0,0,0,0,0,0,0,0,0,0,0,0,0,0,0,0,0,0,0,0,0,0,0,0,0,0,0,0,0,0,0,0,0,0,0,0,0,0,0,0,0,0,0,0,0,0,0,0,0,0,0,0,0,0,0,0,0,0,0,0,0,0,0,0,0,0,0,0],"id":12,"left_children":[1,3,5,7,9,11,13,15,17,19,21,23,25,27,29,31,33,35,37,39,41,43,-1,45,47,-1,49,51,53,-1,55,57,59,61,63,65,-1,67,69,71,-1,73,75,-1,77,79,81,83,-1,85,87,89,91,93,95,97,99,-1,-1,-1,-1,-1,-1,-1,-1,-1,-1,-1,-1,-1,-1,-1,-1,-1,-1,-1,-1,-1,-1,-1,-1,-1,-1,-1,-1,-1,-1,-1,-1,-1,-1,-1,-1,-1,-1,-1,-1,-1,-1,-1,-1],"loss_changes":[1.171195E1,8.614846E0,4.1775846E0,4.9090676E0,4.5947046E0,4.875146E0,7.946232E0,3.9690418E0,4.3332944E0,3.6694884E0,2.834532E0,4.336459E0,2.4489522E0,5.465603E0,5.2908964E0,8.566512E0,4.33027E0,6.0852532E0,3.580875E0,1.9641514E0,2.6951892E0,2.4665856E0,0E0,3.303754E0,1.8634214E0,0E0,2.5541945E0,2.188326E0,3.6555266E0,0E0,4.4138317E0,8.442563E0,5.0058756E0,5.856556E0,4.2910376E0,5.045428E0,0E0,3.8906782E0,7.524204E-1,1.4085531E-1,0E0,7.215822E0,7.8561344E0,0E0,6.1602205E-1,3.5056472E0,2.930258E0,1.9036398E0,0E0,1.6581106E-1,3.0323486E0,2.2510362E0,1.8190765E-1,3.488679E0,1.3229294E0,3.9973063E0,2.100812E0,0E0,0E0,0E0,0E0,0E0,0E0,0E0,0E0,0E0,0E0,0E0,0E0,0E0,0E0,0E0,0E0,0E0,0E0,0E0,0E0,0E0,0E0,0E0,0E0,0E0,0E0,0E0,0E0,0E0,0E0,0E0,0E0,0E0,0E0,0E0,0E0,0E0,0E0,0E0,0E0,0E0,0E0,0E0,0E0],"parents":[2147483647,0,0,1,1,2,2,3,3,4,4,5,5,6,6,7,7,8,8,9,9,10,10,11,11,12,12,13,13,14,14,15,15,16,16,17,17,18,18,19,19,20,20,21,21,23,23,24,24,26,26,27,27,28,28,30,30,31,31,32,32,33,33,34,34,35,35,37,37,38,38,39,39,41,41,42,42,44,44,45,45,46,46,47,47,49,49,50,50,51,51,52,52,53,53,54,54,55,55,56,56],"right_children":[2,4,6,8,10,12,14,16,18,20,22,24,26,28,30,32,34,36,38,40,42,44,-1,46,48,-1,50,52,54,-1,56,58,60,62,64,66,-1,68,70,72,-1,74,76,-1,78,80,82,84,-1,86,88,90,92,94,96,98,100,-1,-1,-1,-1,-1,-1,-1,-1,-1,-1,-1,-1,-1,-1,-1,-1,-1,-1,-1,-1,-1,-1,-1,-1,-1,-1,-1,-1,-1,-1,-1,-1,-1,-1,-1,-1,-1,-1,-1,-1,-1,-1,-1,-1],"split_conditions":[1.4248776E0,6.2085056E-1,2.8628522E-1,1.7495468E0,1.6867211E0,2.6222948E-2,-4.5531146E-2,2.645869E-1,7.49913E-1,-1.5731065E0,4.4824228E-1,1.7495468E0,-9.0763235E-1,8.300173E-1,-1.4067589E0,5.280896E-1,-6.191519E-1,6.112484E-1,4.885559E-1,9.219931E-1,-4.452269E-1,-1.0903617E0,-1.2684862E-1,1.3441199E0,1.4948015E0,2.9235786E-2,2.3193413E-1,-1.2444229E0,-7.7998245E-1,-1.152112E-1,1.1159136E0,-7.5558835E-1,-1.3067431E0,1.5244168E0,-1.0524365E0,1.1242638E0,-1.2966755E-1,-9.007197E-1,1.1460975E0,8.149E-1,-7.7012726E-3,-5.519718E-1,2.1439505E-1,-8.159033E-2,-5.37677E-1,1.3424911E0,-1.1418682E0,-1.1302226E0,-2.2941997E-2,7.639924E-2,1.1159136E0,-6.1802405E-1,-1.5875759E0,-5.872099E-1,5.110982E-1,-1.0778757E0,-3.0185083E-1,-2.0309258E-2,3.605452E-2,3.0174403E-2,-4.5028087E-2,-6.762858E-2,8.9195654E-2,2.3894822E-2,-3.0044794E-2,1.333831E-2,-5.995318E-2,-5.5917848E-2,4.047836E-2,3.901237E-2,1.17210604E-1,1.2808745E-1,3.3145707E-2,9.492353E-3,-9.124536E-2,6.1681148E-2,4.897758E-3,8.694291E-2,-3.0960192E-3,1.37452725E-2,-4.5110844E-2,-4.1511882E-2,1.06301956E-1,3.8111748E-3,9.281962E-2,-4.0966567E-2,-1.526262E-1,7.928363E-2,-7.9095796E-2,-4.895792E-2,7.4836574E-2,3.2348335E-2,1.233384E-1,4.1066155E-2,-1.3482262E-1,9.591621E-2,-4.1538286E-3,1.2582314E-1,2.0947343E-2,3.6206406E-2,-7.576906E-2],"split_indices":[13,10,7,6,10,7,4,8,8,0,19,6,2,2,1,4,4,8,7,7,0,0,0,10,0,0,15,10,0,0,15,8,1,0,2,7,0,1,8,4,0,0,0,0,1,19,8,10,0,8,15,2,8,8,11,0,14,0,0,0,0,0,0,0,0,0,0,0,0,0,0,0,0,0,0,0,0,0,0,0,0,0,0,0,0,0,0,0,0,0,0,0,0,0,0,0,0,0,0,0,0],"split_type":[0,0,0,0,0,0,0,0,0,0,0,0,0,0,0,0,0,0,0,0,0,0,0,0,0,0,0,0,0,0,0,0,0,0,0,0,0,0,0,0,0,0,0,0,0,0,0,0,0,0,0,0,0,0,0,0,0,0,0,0,0,0,0,0,0,0,0,0,0,0,0,0,0,0,0,0,0,0,0,0,0,0,0,0,0,0,0,0,0,0,0,0,0,0,0,0,0,0,0,0,0],"sum_hessian":[7.355563E2,5.91025E2,1.4453127E2,4.0155463E2,1.894704E2,8.407918E1,6.045209E1,3.0678104E2,9.477359E1,1.8338405E2,6.0863476E0,7.585326E1,8.225919E0,3.077228E1,2.967981E1,1.7750043E2,1.2928061E2,6.741952E1,2.7354076E1,6.015265E0,1.7736879E2,3.4157917E0,2.6705558E0,5.9343567E1,1.6509693E1,2.0210915E0,6.204828E0,2.3275043E1,7.4972363E0,2.075776E0,2.7604034E1,1.0475103E2,7.2749405E1,3.9784737E1,8.9495865E1,6.464279E1,2.7767243E0,1.9268194E1,8.085881E0,4.4796996E0,1.5355656E0,6.509965E1,1.1226914E2,1.2056447E0,2.210147E0,5.3647915E1,5.69565E0,1.478968E1,1.7200134E0,3.327794E0,2.8770337E0,4.500064E0,1.877498E1,3.000786E0,4.49645E0,2.1242897E1,6.361137E0,4.9375793E1,5.5375237E1,9.55375E0,6.3195652E1,3.8092068E1,1.6926686E0,1.769349E1,7.1802376E1,5.432932E1,1.0313471E1,4.781847E0,1.4486348E1,3.4095767E0,4.6763043E0,3.40805E0,1.0716494E0,5.8014107E1,7.0855365E0,3.4642338E1,7.762681E1,1.1329908E0,1.0771561E0,4.135008E1,1.2297837E1,1.1747899E0,4.52086E0,3.0710788E0,1.1718601E1,1.1391934E0,2.1886005E0,1.2372929E0,1.6397408E0,1.4608036E0,3.0392601E0,1.083971E0,1.769101E1,1.313062E0,1.6877241E0,2.504006E0,1.992444E0,3.796362E0,1.7446535E1,1.6768564E0,4.6842804E0],"tree_param":{"num_deleted":"0","num_feature":"20","num_nodes":"101","size_leaf_vector":"1"}},{"base_weights":[2.6318273E-3,-1.9449136E-1,4.1518763E-1,2.0027446E-2,-3.192477E-1,7.361372E-1,2.6331073E-1,-7.788026E-2,3.399205E-1,-1.8535545E-1,-4.6867454E-1,8.4366184E-1,3.670599E-1,-2.8890759E-2,3.5522237E-1,-2.68519E-1,9.382416E-2,-2.025982E-1,5.1021576E-1,-2.7864912E-1,1.01009056E-1,-5.8301395E-1,-9.638747E-2,9.971077E-1,4.5999897E-1,-1.2779339E-1,5.633219E-1,1.9425504E-1,-9.269933E-1,4.867383E-1,6.284245E-2,-3.3379096E-1,6.085524E-1,8.081261E-1,2.2253217E-3,6.0782826E-1,-5.673968E-1,1.16578765E-1,7.422557E-1,-6.12293E-1,-1.7483296E-1,2.4971777E-1,-4.3953988E-1,-8.058009E-1,-4.279255E-1,-4.34222E-1,2.2291131E-1,-1.672159E-2,1.033334E0,-8.52819E-2,7.966144E-1,1.3636409E-1,8.79729E-1,5.1343286E-1,-5.2912956E-1,1.8373279E-2,-1.2510785E0,6.0179156E-1,-7.972153E-3,-4.2023873E-1,4.8510492E-1,-7.987881E-3,-7.929239E-2,1.1681395E-1,-3.295433E-2,1.4137593E-1,-1.272959E-2,1.152969E-1,-4.8459596E-3,-3.768352E-3,9.21798E-2,-9.923563E-2,2.6149748E-2,-3.5702042E-2,4.5234874E-2,1.0706277E-1,4.0764853E-2,-7.0218556E-2,6.861011E-2,-4.1457456E-2,4.3676742E-3,5.8005966E-2,-8.851234E-3,-7.821434E-2,9.243123E-2,-6.783539E-3,-9.057687E-2,-5.908088E-2,1.1387556E-2,-1.7424412E-3,-9.587398E-2,-9.017482E-3,8.623091E-2,2.4639705E-2,1.1156966E-1,9.891722E-2,-7.161105E-2,-1.914642E-2,1.002286E-1,5.243319E-2,-5.2864302E-2,1.0222758E-1,-1.6904576E-2,-6.7080553E-3,8.859896E-2,5.5152297E-2,-8.38946E-2,-2.592201E-2,-1.431996E-1,3.7400115E-2,9.025974E-2,-4.6862748E-2,5.7356995E-2,4.0241443E-2,-6.918948E-2,2.1272207E-2,1.1583736E-1],"categories":[],"categories_nodes":[],"categories_segments":[],"categories_sizes":[],"default_left":[0,0,0,0,0,0,0,0,0,0,0,0,0,0,0,0,0,0,0,0,0,0,0,0,0,0,0,0,0,0,0,0,0,0,0,0,0,0,0,0,0,0,0,0,0,0,0,0,0,0,0,0,0,0,0,0,0,0,0,0,0,0,0,0,0,0,0,0,0,0,0,0,0,0,0,0,0,0,0,0,0,0,0,0,0,0,0,0,0,0,0,0,0,0,0,0,0,0,0,0,0,0,0,0,0,0,0,0,0,0,0,0,0,0,0,0,0],"id":13,"left_children":[1,3,5,7,9,11,13,15,17,19,21,23,25,27,29,31,33,35,37,39,41,43,45,47,49,-1,51,53,55,57,59,61,63,65,67,69,71,73,75,77,79,81,83,85,87,89,91,-1,93,95,97,99,101,103,105,-1,107,109,111,113,115,-1,-1,-1,-1,-1,-1,-1,-1,-1,-1,-1,-1,-1,-1,-1,-1,-1,-1,-1,-1,-1,-1,-1,-1,-1,-1,-1,-1,-1,-1,-1,-1,-1,-1,-1,-1,-1,-1,-1,-1,-1,-1,-1,-1,-1,-1,-1,-1,-1,-1,-1,-1,-1,-1,-1,-1],"loss_changes":[5.95126E1,1.3259146E1,1.1339371E1,5.759035E0,6.178646E0,2.6842537E0,4.3653708E0,4.6391068E0,4.0832987E0,4.4849687E0,6.2157593E0,2.935402E0,6.78641E0,8.141689E0,4.715763E0,4.041791E0,4.898899E0,3.5991395E0,2.934143E0,4.260581E0,3.4639812E0,3.5430908E0,3.9605112E0,1.8736687E0,3.4318566E0,0E0,2.241682E0,7.809605E0,3.13826E0,4.8422394E0,8.249974E0,7.2875023E0,3.0089903E0,5.0013404E0,3.986433E0,8.250694E-1,3.1154542E0,2.300489E0,1.8291721E0,3.9277687E0,5.1294107E0,3.7789578E0,5.0988603E0,3.2620277E0,6.1101675E0,3.8622668E0,3.8963294E0,0E0,2.268898E0,6.0620136E0,2.5143728E0,2.502285E0,1.6464734E0,5.0683627E0,3.9739304E0,0E0,7.741308E-1,4.38805E0,4.8291397E0,4.5095644E0,3.6984558E0,0E0,0E0,0E0,0E0,0E0,0E0,0E0,0E0,0E0,0E0,0E0,0E0,0E0,0E0,0E0,0E0,0E0,0E0,0E0,0E0,0E0,0E0,0E0,0E0,0E0,0E0,0E0,0E0,0E0,0E0,0E0,0E0,0E0,0E0,0E0,0E0,0E0,0E0,0E0,0E0,0E0,0E0,0E0,0E0,0E0,0E0,0E0,0E0,0E0,0E0,0E0,0E0,0E0,0E0,0E0,0E0],"parents":[2147483647,0,0,1,1,2,2,3,3,4,4,5,5,6,6,7,7,8,8,9,9,10,10,11,11,12,12,13,13,14,14,15,15,16,16,17,17,18,18,19,19,20,20,21,21,22,22,23,23,24,24,26,26,27,27,28,28,29,29,30,30,31,31,32,32,33,33,34,34,35,35,36,36,37,37,38,38,39,39,40,40,41,41,42,42,43,43,44,44,45,45,46,46,48,48,49,49,50,50,51,51,52,52,53,53,54,54,56,56,57,57,58,58,59,59,60,60],"right_children":[2,4,6,8,10,12,14,16,18,20,22,24,26,28,30,32,34,36,38,40,42,44,46,48,50,-1,52,54,56,58,60,62,64,66,68,70,72,74,76,78,80,82,84,86,88,90,92,-1,94,96,98,100,102,104,106,-1,108,110,112,114,116,-1,-1,-1,-1,-1,-1,-1,-1,-1,-1,-1,-1,-1,-1,-1,-1,-1,-1,-1,-1,-1,-1,-1,-1,-1,-1,-1,-1,-1,-1,-1,-1,-1,-1,-1,-1,-1,-1,-1,-1,-1,-1,-1,-1,-1,-1,-1,-1,-1,-1,-1,-1,-1,-1,-1,-1],"split_conditions":[1.0891052E0,-4.334019E-1,-4.334019E-1,1.7495468E0,5.7349734E-2,8.7069166E-1,-9.398885E-1,-1.5505497E-1,-3.0185083E-1,1.7495468E0,9.25385E-1,6.853041E-1,9.0955806E-1,1.2109511E0,7.1842766E-1,1.492759E0,-1.1927726E0,-7.001889E-1,-2.1005563E-1,-9.9329907E-1,1.2687428E0,-1.9131003E-1,2.3193413E-1,-1.6797333E0,-5.211536E-1,-1.2779339E-1,-1.08565174E-1,9.876237E-1,-3.6463228E-1,1.1017103E0,1.1669468E0,4.4286996E-1,6.739239E-1,7.323296E-2,-1.2012611E-1,-7.250681E-1,4.0186846E-1,-2.88353E-1,-1.4476946E-1,1.4576644E0,-6.0464483E-2,6.4527583E-1,4.1598707E-1,-1.3003421E0,8.984822E-1,8.9986885E-1,8.3530563E-1,-1.672159E-2,-1.5983739E0,-1.2444229E0,8.7234676E-1,6.739239E-1,1.3954318E0,-3.2052678E-1,-8.024975E-1,1.8373279E-2,-9.1571814E-1,-3.12091E-1,1.0611308E-1,-6.763514E-1,1.3424911E0,-7.987881E-3,-7.929239E-2,1.1681395E-1,-3.295433E-2,1.4137593E-1,-1.272959E-2,1.152969E-1,-4.8459596E-3,-3.768352E-3,9.21798E-2,-9.923563E-2,2.6149748E-2,-3.5702042E-2,4.5234874E-2,1.0706277E-1,4.0764853E-2,-7.0218556E-2,6.861011E-2,-4.1457456E-2,4.3676742E-3,5.8005966E-2,-8.851234E-3,-7.821434E-2,9.243123E-2,-6.783539E-3,-9.057687E-2,-5.908088E-2,1.1387556E-2,-1.7424412E-3,-9.587398E-2,-9.017482E-3,8.623091E-2,2.4639705E-2,1.1156966E-1,9.891722E-2,-7.161105E-2,-1.914642E-2,1.002286E-1,5.243319E-2,-5.2864302E-2,1.0222758E-1,-1.6904576E-2,-6.7080553E-3,8.859896E-2,5.5152297E-2,-8.38946E-2,-2.592201E-2,-1.431996E-1,3.7400115E-2,9.025974E-2,-4.6862748E-2,5.7356995E-2,4.0241443E-2,-6.918948E-2,2.1272207E-2,1.1583736E-1],"split_indices":[12,9,9,6,0,1,10,0,14,6,10,0,1,7,0,8,4,0,15,8,7,1,15,1,10,0,0,8,11,4,0,8,15,11,0,7,7,1,1,1,7,9,12,8,8,0,7,0,9,10,0,15,0,7,11,0,0,0,8,8,19,0,0,0,0,0,0,0,0,0,0,0,0,0,0,0,0,0,0,0,0,0,0,0,0,0,0,0,0,0,0,0,0,0,0,0,0,0,0,0,0,0,0,0,0,0,0,0,0,0,0,0,0,0,0,0,0],"split_type":[0,0,0,0,0,0,0,0,0,0,0,0,0,0,0,0,0,0,0,0,0,0,0,0,0,0,0,0,0,0,0,0,0,0,0,0,0,0,0,0,0,0,0,0,0,0,0,0,0,0,0,0,0,0,0,0,0,0,0,0,0,0,0,0,0,0,0,0,0,0,0,0,0,0,0,0,0,0,0,0,0,0,0,0,0,0,0,0,0,0,0,0,0,0,0,0,0,0,0,0,0,0,0,0,0,0,0,0,0,0,0,0,0,0,0,0,0],"sum_hessian":[7.298006E2,4.9419702E2,2.3560358E2,1.8203203E2,3.1216498E2,7.444269E1,1.6116089E2,1.3995378E2,4.2078255E1,1.6582225E2,1.4634274E2,5.665215E1,1.779054E1,3.8727077E1,1.22433815E2,6.605304E1,7.390074E1,1.0007416E1,3.207084E1,1.25094955E2,4.0727287E1,1.1152451E2,3.481823E1,3.9325153E1,1.7326998E1,1.3088541E0,1.6481688E1,3.1647526E1,7.079553E0,8.398957E1,3.844424E1,6.205436E1,3.9986794E0,7.510472E0,6.639027E1,2.8995821E0,7.107833E0,1.2451049E1,1.9619791E1,2.8524662E1,9.657029E1,3.2362244E1,8.365045E0,4.4050106E1,6.74744E1,1.674317E1,1.8075058E1,1.0775181E0,3.8247635E1,6.898621E0,1.0428376E1,7.624377E0,8.85731E0,2.2160097E1,9.48743E0,1.6968993E0,5.382654E0,6.7966385E1,1.6023186E1,1.7933062E1,2.0511179E1,4.071301E1,2.134135E1,2.351032E0,1.6476471E0,4.248468E0,3.2620041E0,1.8833423E0,6.450693E1,1.2367797E0,1.6628026E0,4.5684595E0,2.5393734E0,5.139111E0,7.311938E0,8.791984E0,1.0827808E1,2.7107126E1,1.4175359E0,4.5620125E1,5.095017E1,1.6010326E1,1.6351917E1,7.0264897E0,1.3385552E0,5.4555583E0,3.8594547E1,5.180858E1,1.5665825E1,9.905322E0,6.8378468E0,1.27103195E1,5.364739E0,4.0019946E0,3.424564E1,2.3418427E0,4.5567784E0,1.808609E0,8.619767E0,4.9487786E0,2.6755981E0,7.819738E0,1.0375726E0,8.982937E0,1.317716E1,1.9401045E0,7.5473247E0,1.2056466E0,4.177007E0,3.9953915E1,2.801247E1,9.049218E0,6.9739676E0,4.3322916E0,